{"layer1.weight": [[0.18029353022575378, 0.13102826476097107, 0.1608174592256546, 0.17322033643722534, 0.017420224845409393, 0.18963435292243958, 0.17450080811977386, -0.1629669964313507, -0.04447293281555176, 0.27738550305366516, 0.11555057018995285, -0.1218537837266922, -0.017614228650927544, -0.01184080634266138, -0.21620303392410278, -0.23151135444641113, -0.10990573465824127, -0.0500386618077755, 0.17087256908416748, 0.1801765114068985, 0.0796804130077362, -0.024456793442368507, -0.2900870144367218, -0.13492031395435333, 0.11273249238729477, -0.06736526638269424, -0.036387860774993896, 0.05952009558677673, -0.08998388051986694, -0.08988382667303085, -0.08474662899971008, -0.05700374394655228, -0.014906295575201511, 0.11570248752832413, 0.10981671512126923, 0.10937529057264328, -0.016531530767679214, -0.05458751320838928, -0.09421756863594055, 0.11870504915714264, 0.08353512734174728, 0.12458053976297379, 0.09303674101829529, 0.11453857272863388, -0.12036401033401489, 0.03235536068677902, 0.09472431242465973, -0.11659376323223114, -0.07711122930049896, -0.07944096624851227, -0.027303216978907585, -0.11349102109670639, -0.1004113256931305, -0.11564788967370987, -0.10293427854776382, 0.07665686309337616, -0.12499981373548508, 0.009101117961108685, -0.049150459468364716, -0.029599854722619057, 0.1214277595281601, 0.03263358771800995, -0.11841422319412231, 0.09731695801019669, -0.12363526970148087, -0.00298808584921062, -0.005830558016896248, 0.03481747955083847, -0.10393498837947845, 0.11436480283737183, 0.12398608773946762, 0.06495212018489838, -0.12163002789020538, -0.12423814833164215, 0.017012855038046837, -0.12170837074518204, -0.12499748915433884, -0.12383431941270828, 0.10385487973690033, 0.11956547945737839, 0.04901796206831932, -0.06188049912452698, -0.08442841470241547, 0.04024302586913109, -0.07944096624851227, -0.08095957338809967, 0.12497809529304504, -0.06396465003490448, -0.08833085000514984, 0.09830369055271149, -0.11407215148210526, -0.11669733375310898, -0.0745062604546547, -0.1107238382101059, 0.11273249238729477, 0.04024302586913109, -0.10797011107206345, 0.0923241376876831, 0.048039279878139496, -0.12363526970148087, 0.10078513622283936, -0.028338560834527016, -0.028847450390458107, -0.09513403475284576, 0.030630555003881454, -0.06950423866510391, 0.12244251370429993, 0.04585340619087219, 0.010734193958342075, -0.08321311324834824, -0.1033412516117096, 0.12462639063596725, 0.12023204565048218, -0.12164235860109329, 0.04019235074520111, -0.05315752699971199, -0.06854335963726044, 0.08139777928590775, 0.1212066113948822, -0.07888349145650864, -0.11925143748521805, -0.05989979952573776, 0.074852854013443, 0.11226961761713028, 0.06524378061294556, -0.11482514441013336, 0.12323275953531265, 0.09661299735307693], [0.12142308801412582, -0.01923399791121483, -0.11088059097528458, -9.536295692669228e-06, -0.005980570334941149, -0.027619125321507454, 0.12658080458641052, 0.11844372004270554, -0.13232655823230743, -0.05350195989012718, 0.10805448144674301, -0.10361304879188538, 0.11720640957355499, -0.11503281444311142, -0.019120769575238228, 0.01934254914522171, -0.12332063913345337, 0.074818916618824, 0.14464060962200165, -0.09287669509649277, -0.008413584902882576, 0.145894855260849, -0.13890045881271362, -0.11444047838449478, 0.07069701701402664, 0.1138947382569313, 0.0791768878698349, 0.033744752407073975, 0.05297863483428955, 0.08798650652170181, -0.12255718559026718, 0.011361513286828995, 0.12319322675466537, -0.12489470839500427, -0.12494970113039017, -0.047955673187971115, 0.08764082938432693, -0.02489197626709938, 0.06954871118068695, -0.0017287463415414095, 0.06617868691682816, -0.12305977195501328, 0.05406852439045906, 0.110455222427845, -0.12497531622648239, -0.10428354889154434, -0.019826045259833336, 0.12418976426124573, 0.0810285434126854, -0.07542850822210312, -0.024855684489011765, 0.004247121978551149, -0.07647140324115753, 0.09328921884298325, 0.08883906155824661, -0.12431549280881882, -0.048487331718206406, 0.006406133994460106, 0.06777390837669373, 0.11700432002544403, -0.12091968953609467, 0.12160911411046982, 0.061959158629179, 0.07066647708415985, -0.06233415752649307, 0.12140623480081558, 0.11289557814598083, 0.02067902311682701, 0.029459865763783455, -0.03537056967616081, 0.12406456470489502, -0.019826045259833336, 0.06639157235622406, 0.11520557105541229, 0.029511872678995132, -0.047457255423069, -0.10528446733951569, -0.11013367772102356, -0.11352893710136414, 0.12342063337564468, -0.1126701757311821, 0.10452122241258621, 0.10326012969017029, -0.024044299498200417, -0.03146786242723465, -0.09058171510696411, -0.10716290771961212, -0.09478337317705154, 0.03216446936130524, 0.12322654575109482, -0.1247490718960762, 0.056266169995069504, 0.12401775270700455, 0.10916540026664734, -0.09968835115432739, -0.124532051384449, -0.12064620107412338, 0.07745093107223511, -0.10244140028953552, 0.09695425629615784, -0.11566819250583649, -0.016335660591721535, -0.12165088206529617, -0.1017766147851944, 0.025472575798630714, 0.11463890224695206, -0.013135239481925964, -0.03753997012972832, 0.08958293497562408, 0.04119648039340973, -0.11036258190870285, 0.049811951816082, -0.08478596061468124, -0.010356861166656017, 0.00023461607634089887, 0.10080704092979431, -0.048138078302145004, -0.09613066166639328, 0.09603851288557053, -0.09402796626091003, 0.12491170316934586, -0.014190858229994774, 0.11478932946920395, 0.124648317694664, 0.12226562947034836, 0.0709039568901062, 0.10625399649143219, 0.015870338305830956], [-0.023321542888879776, 0.09651361405849457, 0.19156180322170258, 0.12244898825883865, 0.1281863898038864, 0.01720248907804489, 0.03787780553102493, -0.08958474546670914, -0.2027781903743744, 0.10509389638900757, -0.0429481565952301, 0.11307872086763382, -0.019968518987298012, 0.06504358351230621, 0.026623642072081566, -0.2575620710849762, 0.024048447608947754, -0.09942023456096649, -0.03888833150267601, 0.24212832748889923, -0.054174162447452545, 0.14768874645233154, -0.22715778648853302, -0.07820307463407516, -0.009047742001712322, 0.04702282324433327, 0.03259783983230591, 0.11949200183153152, 0.030666455626487732, 0.0028070358093827963, -0.06849859654903412, 0.10937529057264328, -0.11648957431316376, 0.07267298549413681, -0.0491996593773365, -0.04768946021795273, -0.021920165047049522, -0.11516399681568146, -0.06155119091272354, -0.0770820826292038, 0.1208600178360939, 0.05145654454827309, -0.032391130924224854, 0.12492719292640686, 0.0202526543289423, 0.061504606157541275, 0.09628046303987503, -0.0011525179725140333, 0.10374478995800018, 0.004247121978551149, -0.09563418477773666, 0.07505380362272263, 0.10935735702514648, 0.08581198006868362, -0.11119577288627625, -0.06498375535011292, -0.0754711776971817, -0.1229831799864769, 0.021247128024697304, -0.0863611102104187, 0.051310185343027115, 0.08897794783115387, 0.01351176481693983, 0.02823430299758911, -0.08730563521385193, -0.12431161850690842, 0.02490813098847866, 0.12256446480751038, -0.0923491045832634, -0.0379519946873188, 0.06238054111599922, -0.09440667182207108, -0.08400256931781769, -0.09280821681022644, -0.0683332309126854, -0.03099755011498928, 0.1212986409664154, 0.09810250997543335, 0.11957627534866333, -0.04350072890520096, -0.08061719685792923, -0.11228589713573456, 0.11920817196369171, 0.08106929063796997, 0.12494553625583649, 0.09830369055271149, 0.11864298582077026, -0.11617329716682434, 0.04785681143403053, 0.08202390372753143, -0.10726448893547058, -0.09590134769678116, -0.09880248457193375, 0.0036011715419590473, -0.12319043278694153, -0.0994270071387291, -0.11685152351856232, -0.09907669574022293, 0.07002680748701096, -0.12445434927940369, 0.02209843508899212, -0.0637487843632698, -0.04674043878912926, 0.11463890224695206, 0.05703669786453247, -0.12433429062366486, 0.07498137652873993, -0.12418554723262787, -0.004625566303730011, -0.0025559919886291027, 0.02847885712981224, -0.10825935006141663, 0.10926151275634766, 0.12496805936098099, 0.07835226505994797, -0.12451008707284927, -0.12010283768177032, -0.00913805142045021, -0.11240322142839432, -0.12094676494598389, -0.11519119143486023, 0.1047576442360878, 0.11856891214847565, 0.054975997656583786, -0.054635655134916306, -0.07562858611345291, 0.027636514976620674, -0.09137208014726639], [-0.06710077077150345, 0.12262052297592163, -0.041101615875959396, -0.06758294999599457, 0.11344029009342194, -0.09742449969053268, -0.11637257039546967, -0.07758784294128418, -0.11459023505449295, 0.11555875837802887, 0.028380710631608963, -0.11442883312702179, 0.10167695581912994, 0.06364355981349945, -0.12543652951717377, 0.08220671862363815, -0.0011964078294113278, -0.05793219432234764, -0.07087346166372299, 0.029039664193987846, -0.06675737351179123, 0.12095611542463303, 0.038140203803777695, 0.02209843508899212, -0.07299414277076721, -0.1116454154253006, 0.12472095340490341, 0.12428899854421616, -0.11298730969429016, 0.06535257399082184, -0.023636216297745705, -0.03911498561501503, 0.08263406157493591, 0.12196594476699829, -0.07369410246610641, -0.12144922465085983, -0.06969911605119705, 0.08491893857717514, 0.11848916858434677, 0.04924885183572769, -0.12153828144073486, 0.1248931884765625, 0.11175072938203812, 0.09492279589176178, -0.00421011121943593, -0.12426958233118057, -0.015192332677543163, -0.006837727036327124, -0.020873859524726868, 0.10553666204214096, 0.10679029673337936, -0.12293800711631775, -0.07995466887950897, 0.11676210910081863, -0.11701734364032745, 0.12447753548622131, -0.12491763383150101, 0.03103342466056347, 0.060577861964702606, -0.11175811290740967, 0.08428260684013367, 0.12441684305667877, -0.1235627606511116, -0.042418401688337326, 0.12490200996398926, -0.12192615866661072, -0.110040083527565, 0.09060722589492798, 0.09969829767942429, 0.10057287663221359, 0.06378063559532166, 0.054457876831293106, 0.0902833342552185, -0.12367740273475647, 0.003185609821230173, 0.12073513865470886, -0.12367202341556549, -0.12434148788452148, -0.030873937532305717, 0.10148423165082932, -0.04984591156244278, 0.04487919807434082, -0.03247857838869095, 0.09139734506607056, -0.12333671748638153, 0.05109615623950958, 0.10723700374364853, -0.12486973404884338, -0.09753101319074631, -0.006800750270485878, 0.12126775830984116, 0.09386232495307922, -0.0912371277809143, 0.0011895484058186412, -0.02346234768629074, -0.04974401369690895, 0.11166206002235413, 0.08767898380756378, -0.12461517751216888, -0.04238356649875641, 0.014567026868462563, 0.05786655470728874, 0.12096545100212097, -0.11574295163154602, 0.11619304120540619, 0.07946955412626266, 0.04765522852540016, -0.08473450690507889, 0.11032778769731522, 0.12294469773769379, 0.022292880341410637, 0.03263358771800995, -0.041604284197092056, 0.12279875576496124, -0.008435945026576519, 0.05494273826479912, 0.10787874460220337, 0.011754988692700863, -0.06637760996818542, -0.08895193785429001, -0.12047550827264786, -0.12291859835386276, 0.12433768808841705, -0.11336995661258698, 0.10268845409154892, 0.10680953413248062, -0.032025232911109924, -0.042418401688337326], [-0.09909927099943161, -0.09783408045768738, -0.1055079773068428, 0.05217947065830231, 0.11615962535142899, -0.11991631239652634, 0.08203940093517303, 0.1157289668917656, 0.1083579882979393, -0.10163062810897827, -0.12379472702741623, -0.11824575066566467, 0.08611378073692322, -0.0943823903799057, 0.08581198006868362, -0.10765977203845978, -0.03711175546050072, -0.12496889382600784, -0.08322541415691376, -0.005472788121551275, 0.0978110209107399, -0.011504976078867912, -0.03440217673778534, 0.08489176630973816, 0.04883614182472229, -0.11527571827173233, 0.061536844819784164, -0.07205544412136078, 0.007647247053682804, 0.02142556942999363, 0.11398445069789886, -0.021458052098751068, -0.07347451150417328, 0.07202517986297607, -0.0950993150472641, 0.124745674431324, -0.007663701195269823, 0.11130275577306747, 0.12498254328966141, 0.11887290328741074, 0.056842509657144547, 0.11461097747087479, -0.005382324103266001, -0.08494611084461212, 0.04677478224039078, 0.120460145175457, 0.040445636957883835, 0.12110022455453873, -0.04941525310277939, -0.0730241984128952, -0.0646599754691124, -0.11359602957963943, -0.014227650128304958, -0.04048067703843117, 0.09653199464082718, -0.01075061783194542, 0.042453233152627945, 0.10091401636600494, -0.1150452122092247, 0.005612656008452177, -0.04446014016866684, -0.09154324233531952, 0.1207447201013565, -0.10211009532213211, 0.08303789049386978, -0.12453524768352509, 0.023300640285015106, -0.026865189895033836, 0.026704400777816772, 0.006763773038983345, 0.12464708089828491, 0.05958521366119385, -0.0296718068420887, -0.06986305117607117, 0.11092375218868256, -0.11395402997732162, 0.0791768878698349, -0.03846541792154312, -0.03533504903316498, -0.005649650003761053, -0.12095195055007935, -0.04221314936876297, -0.05490947142243385, 0.11082302033901215, 0.021794550120830536, -0.06256947666406631, 0.1249723732471466, 0.017012855038046837, 0.055717840790748596, 0.09085357189178467, -0.012598869390785694, 0.11047255992889404, -0.012115530669689178, -0.08307788521051407, 0.05701841413974762, 0.09435810893774033, 0.06360713392496109, -0.09369361400604248, -0.09043405950069427, -0.07415878772735596, -0.12235479801893234, 0.027672629803419113, -0.09209347516298294, 0.061536844819784164, 0.07930105924606323, 0.029635831713676453, 0.04543570429086685, -0.07087346166372299, -0.11886145174503326, -0.002774073276668787, 0.12483563274145126, -0.1110241487622261, -0.0395096056163311, 0.0651981309056282, -0.09857006371021271, -0.077760711312294, -0.10008922964334488, -0.07891222089529037, -0.04655713215470314, 0.12437809258699417, 0.08354739099740982, 0.12453842908143997, -0.06831943243741989, -0.10167372971773148, -0.12268346548080444, 0.11969082057476044, 0.07854775339365005, 0.12496721744537354], [0.10314865410327911, 0.12174952775239944, -0.11070664972066879, 0.06253740936517715, 0.06762166321277618, -0.09482899308204651, -0.11048988252878189, -0.11327961832284927, 0.034283410757780075, -0.12447414547204971, -0.09842561185359955, -0.11797487735748291, -0.09494688361883163, 0.06309615075588226, -0.12286213040351868, 0.034853044897317886, -0.07725368440151215, -0.062911257147789, 0.10453025996685028, 0.07894093543291092, -0.12410778552293777, 0.04802031069993973, -0.11625213921070099, -0.006262252107262611, 0.000720329990144819, 0.022061984986066818, -0.11211898922920227, 0.1032392606139183, 0.12457750737667084, 0.09040848910808563, -0.12480682879686356, -0.11248952150344849, -0.034888606518507004, -0.09754132479429245, -0.10943503677845001, -0.0986788347363472, 0.1056424155831337, 0.11749088019132614, 0.06078298017382622, -0.04715627431869507, -0.06619267165660858, 0.014726473018527031, -0.10173595696687698, -0.05053582414984703, 0.1185741275548935, -0.014689698815345764, -0.041584908962249756, 0.12324514240026474, -0.0731678158044815, -0.11548317223787308, -0.0796632170677185, -0.1161869615316391, 0.11882315576076508, 0.0179747287184, -0.11871664226055145, 0.11100712418556213, 0.07887070626020432, -0.12268268316984177, 0.06194131448864937, 0.026901355013251305, -0.08344319462776184, -0.041771188378334045, 0.027443787083029747, -0.06396465003490448, 0.11913736909627914, 0.030263276770710945, 0.033276814967393875, -0.06197347864508629, -0.11803460866212845, 0.12222782522439957, 0.12474672496318817, -0.09938210248947144, 0.08728203922510147, 0.007343176286667585, -0.007014492526650429, 0.08385614305734634, 0.12264148145914078, -0.068302221596241, -0.12312566488981247, -0.07891222089529037, 0.09405235946178436, 0.12267636507749557, 0.03223210945725441, -0.12473183870315552, 0.12108184397220612, 0.12136396765708923, 0.07195115089416504, 0.028306446969509125, -0.12408207356929779, -0.018438955768942833, -0.013368532992899418, -0.012758593074977398, 0.11122959107160568, 0.09940455853939056, -0.12483857572078705, -0.09292943775653839, 0.1226382926106453, -0.12360354512929916, 0.11887800693511963, -0.11994648724794388, 0.061350420117378235, 0.059139683842659, -0.11025222390890121, 0.08900395035743713, 0.12493954598903656, -0.12477470934391022, -0.054491207003593445, 0.12447753548622131, -0.11670324206352234, -0.1185009554028511, 0.10654778778553009, 0.0805731788277626, 0.11576468497514725, 0.0894593745470047, 0.055927764624357224, 0.0925181433558464, -0.12445779889822006, -0.005003968253731728, 0.11726157367229462, -0.12109103798866272, -0.12160053849220276, -0.01315163355320692, 0.11238878965377808, -0.07261601835489273, 0.017991041764616966, -0.061224859207868576, 0.11037223041057587, -0.12359248101711273], [0.0406976155936718, 0.1010991632938385, -0.1254398673772812, -0.09863921254873276, 0.00306184240616858, 0.13276337087154388, 0.12226849794387817, -0.12212545424699783, 0.0010030322009697556, -0.032028745859861374, -0.02007380686700344, 0.13165895640850067, 0.10693010687828064, -0.10237886756658554, -0.04515881836414337, -0.006951896008104086, 0.050847236067056656, 0.10587237030267715, -0.09374632686376572, 0.14484494924545288, 0.10873346030712128, 0.03805634379386902, -0.13566477596759796, 0.05567694455385208, 0.12459491193294525, 0.023902907967567444, 0.03578489273786545, -0.047723688185214996, 0.12100581079721451, 0.003025107318535447, 0.04289046302437782, 0.09870155900716782, -0.006245787721127272, -0.08337575197219849, -0.06872227042913437, -0.12486153095960617, -0.12472561001777649, 0.11676066368818283, -0.1140502542257309, 0.10078513622283936, 0.11006546020507812, -0.03986869379878044, -0.0530121736228466, -0.10652841627597809, -0.08682718127965927, -0.11404351145029068, 0.07068342715501785, 0.10400355607271194, -0.10915538668632507, 0.10275176167488098, 0.09953419864177704, 0.10753196477890015, -0.10350307822227478, -0.12271726876497269, -0.11533771455287933, 0.09405235946178436, -0.08528678119182587, 0.07319783419370651, -0.09741763770580292, -0.05681314319372177, -0.12281181663274765, -0.06055988743901253, -0.03608054295182228, 0.07430122792720795, -0.009872736409306526, -0.03124074637889862, 0.07996733486652374, 0.056266169995069504, -0.11921930313110352, 0.07258587330579758, -0.058089014142751694, 0.02549269050359726, 0.041996069252491, 0.12216801941394806, 0.006282772868871689, -0.046285830438137054, 0.04309147223830223, -0.09615433216094971, 0.12449394166469574, -0.0011154874227941036, 0.10733839124441147, 0.12426558136940002, 0.11417459696531296, 0.041806090623140335, 0.12059001624584198, -0.026479123160243034, -0.10217413306236267, 0.0712323859333992, 0.10851771384477615, 0.008415444754064083, 0.12068381160497665, -0.05240754038095474, -0.07823996245861053, -0.07152638584375381, -0.10833951830863953, -0.027146518230438232, -0.024678176268935204, 0.08412139117717743, 0.010520899668335915, 0.06599698215723038, 0.11471913009881973, -0.12354402244091034, -0.026937518268823624, -0.04292524233460426, -0.08928097784519196, 0.12227332592010498, -0.09716954082250595, 0.07412897050380707, -0.12497840076684952, 0.007051466032862663, -0.04412524029612541, 0.005612656008452177, -0.01936662569642067, 0.12364012748003006, 0.08482825756072998, -0.06012363359332085, -0.07121550291776657, 0.1123960092663765, -0.11110537499189377, 0.08534090965986252, -0.027407657355070114, -0.02259254828095436, 0.010717769153416157, -0.12423041462898254, -0.021652676165103912, -0.030331192538142204, 0.09530739486217499, -0.009211915545165539], [-0.10391243547201157, 0.10247990489006042, -0.006311706267297268, 0.028181377798318863, 0.07302375882863998, -0.03124225325882435, 0.10227090865373611, -0.04095807299017906, -0.08285317569971085, 0.02681213803589344, 0.06018004193902016, 0.028775418177247047, -0.07954653352499008, -0.11980096995830536, -0.07714701443910599, -0.1261696219444275, 0.028163764625787735, -0.10022222250699997, 0.062273405492305756, 0.060911811888217926, 0.036067984998226166, 0.052650220692157745, -0.052388887852430344, -0.10820376873016357, -0.03031913936138153, 0.11940589547157288, -0.1221146211028099, -0.0410604327917099, 0.06797092407941818, -0.10246261954307556, -0.07118506729602814, -0.10652841627597809, -0.088624507188797, -0.06131815165281296, 0.1248769611120224, 0.06657285243272781, 0.12404435127973557, -0.08976070582866669, -0.11645817756652832, -0.12469996511936188, 0.12015290558338165, 0.07597225904464722, 0.12464553862810135, 0.10755083709955215, 0.12383206933736801, -0.10402409732341766, 0.07614535838365555, 0.0518164224922657, -0.07964738458395004, -0.12023766338825226, -0.12215667963027954, 0.06285075843334198, -0.11725445836782455, -0.09740731120109558, -0.11901717633008957, -0.09055618941783905, 0.0558946430683136, -0.12023655325174332, 0.04722486063838005, -0.08943350613117218, -0.07777680456638336, 0.0913945734500885, 0.09738664329051971, -0.11774590611457825, 0.018096955493092537, -0.10037702322006226, -0.007897862233221531, 0.0039961570873856544, 0.015584494918584824, -0.11549733579158783, 0.09634868800640106, 0.1228187084197998, 0.10091401636600494, -0.12251408398151398, -0.10161866247653961, -0.05911063402891159, -0.07785739004611969, -0.09117243438959122, -0.07542526721954346, 0.10650903731584549, 0.11633212864398956, 0.0664229467511177, -0.039474472403526306, -0.056200023740530014, 0.0016546890838071704, -0.11035484075546265, -0.03358621895313263, 0.11014927178621292, 0.011472145095467567, -0.014509839005768299, 0.12458759546279907, -0.04440632089972496, -0.11484628170728683, -0.08216047286987305, -0.11844319850206375, 0.12110939621925354, 0.006566469557583332, -0.1221601739525795, 0.11756516993045807, 0.0919848382472992, -0.11684422194957733, 0.03798340633511543, 0.053209636360406876, -0.10380672663450241, -0.00981533620506525, 0.025843193754553795, -0.06112797558307648, 0.11699128150939941, 0.022256439551711082, 0.04417530819773674, -0.050272151827812195, -0.12239924818277359, 0.11719872057437897, 0.1215919554233551, -0.08142279833555222, 0.10489663481712341, 0.03786958009004593, 0.025565193966031075, 0.08506382256746292, 0.12323275953531265, -0.06272267550230026, -0.12427357584238052, -0.08746161311864853, 0.10215279459953308, 0.12475939095020294, 0.014546619728207588, -0.1243133470416069, 0.11196570843458176], [0.1526789367198944, 0.09741632640361786, 0.10519839078187943, -0.08740556985139847, -0.015525267459452152, 0.024822592735290527, 0.06783439964056015, 0.09156961739063263, 0.03183067589998245, -0.05043139308691025, -0.09566090255975723, 0.12642595171928406, -0.11305300891399384, 0.13910654187202454, -0.14964285492897034, -0.023735789582133293, 0.044845618307590485, -0.15130051970481873, 0.12741515040397644, 0.21006400883197784, -0.09282609820365906, -0.030195308849215508, 0.044560711830854416, -0.19598624110221863, -0.12353020906448364, 0.11782030761241913, 0.05746486410498619, 0.12381516396999359, 0.10902673751115799, 0.05738804489374161, 0.09468938410282135, -0.12489622831344604, -0.01317206583917141, 0.11280176043510437, -0.11718010157346725, -0.11677388101816177, 0.0048435404896736145, 0.12003873288631439, -0.09220469743013382, -0.009786516427993774, -0.08619427680969238, 0.12180708348751068, -0.1238270178437233, 0.045048173516988754, 0.09992626309394836, -0.12305326759815216, -0.08162871748209, 0.019330039620399475, 0.10926952213048935, 0.11346165835857391, -0.11454679816961288, 0.051984865218400955, -0.07408914715051651, 0.011078587733209133, 0.1247892901301384, 0.08531384915113449, -0.12495754659175873, -0.029843755066394806, 0.030666455626487732, 0.03667917847633362, 0.1248730942606926, -0.09955660253763199, 0.09829099476337433, 0.10714592784643173, -0.0035311973188072443, -0.11606814712285995, 0.06885632872581482, 0.11773347109556198, 0.025508828461170197, 0.0389116108417511, -0.053711965680122375, 0.11869344115257263, 0.014460716396570206, 0.030367115512490273, 0.08783143013715744, -0.02411697618663311, -0.09795945882797241, -0.04548177495598793, -0.12307491898536682, -0.11883850395679474, 0.1012071818113327, -0.1147109717130661, 0.09881258010864258, 0.11301896721124649, -0.04754101112484932, -0.06316007673740387, -0.11278755217790604, -0.07433100044727325, -0.12021287530660629, 0.08714048564434052, 0.0872909277677536, -0.09299827367067337, 0.11712552607059479, 0.07653979957103729, 0.10668746381998062, -0.10530442744493484, -0.12130261957645416, -0.11193456500768661, 0.10119988769292831, -0.07525445520877838, 0.059328190982341766, -0.08515428751707077, -0.074869304895401, -0.11527415364980698, -0.03490053489804268, -0.06446254998445511, 0.0457155741751194, -0.008238800801336765, -0.028057854622602463, 0.07482319325208664, 0.06345466524362564, -0.1221601739525795, 0.08283768594264984, -0.04312623292207718, 0.04280921444296837, 0.061350420117378235, 0.12499920278787613, 0.033713001757860184, -0.016241857782006264, 0.011213989928364754, -0.09719283133745193, 0.12415667623281479, 0.005435791332274675, 0.1029132679104805, 0.12250345200300217, 0.10822230577468872, 0.026052601635456085, 0.12406706809997559], [-0.04837721213698387, -0.11715724319219589, 0.09005767852067947, 0.08756909519433975, -0.026220109313726425, 0.11908066272735596, -0.05600713938474655, -0.08436655253171921, -0.08039767295122147, -0.10327748954296112, -0.0417775996029377, -0.009537988342344761, 0.06791488081216812, 0.030361948534846306, 0.08554359525442123, 0.12054110318422318, -0.1255072057247162, -0.0576474666595459, -0.04138297215104103, -0.08695736527442932, 0.12346596270799637, -0.09181187301874161, 0.06459657847881317, -0.12404891848564148, -0.009318656288087368, -0.06046978756785393, -0.015641622245311737, -0.04464854300022125, 0.11652091145515442, 0.10483838617801666, -0.08646813780069351, -0.07255572080612183, 0.11379104107618332, -0.10795144736766815, 0.09113859385251999, -0.016119375824928284, -0.009601913392543793, 0.026901355013251305, -0.12493135035037994, -0.0004651699564419687, -0.004424052778631449, 0.07508016377687454, -0.03965011239051819, -0.10833331942558289, 0.1249983161687851, 0.010500425472855568, 0.043701350688934326, 0.0788547620177269, -0.035078294575214386, 0.12022753804922104, -0.04394032061100006, -0.05309048667550087, 0.01656421087682247, 0.05279592424631119, 0.011017188429832458, -0.042786091566085815, -0.1214841902256012, -0.07149601727724075, -0.12084634602069855, 0.04027808457612991, -0.10234931856393814, 0.08035579323768616, 0.057450223714113235, 0.06009116396307945, 0.07667309045791626, -0.03238720819354057, -0.09280549734830856, -0.056365352123975754, 0.10661020129919052, -0.12486288696527481, -0.04260420799255371, 0.07069701701402664, -0.10607364028692245, -0.06430383771657944, -0.11207162588834763, -0.0973634198307991, -0.07502743601799011, 0.12278489768505096, 0.04767046868801117, 0.11811569333076477, -0.10676457732915878, -0.12405851483345032, -0.11819763481616974, 0.12059435993432999, 0.07334455847740173, 0.12398137152194977, 0.11149134486913681, 0.1248730942606926, -0.09619904309511185, 0.08844724297523499, 0.0349360927939415, -0.06215929239988327, -0.12471764534711838, -0.12499482184648514, 0.08754094690084457, -0.10202457755804062, -0.09637227654457092, -0.11997770518064499, -0.0859166756272316, 0.0484532006084919, -0.11659970879554749, 0.059078000485897064, -0.10007935017347336, -0.09102863818407059, 0.07561222463846207, 0.11156567931175232, -0.10556315630674362, -0.01294277235865593, -0.07764468342065811, -0.00953211635351181, 0.0072692385874688625, 0.009064184501767159, -0.11837989836931229, 0.0886477530002594, 0.11971098184585571, 0.1096886470913887, -0.11767943203449249, -0.08780507743358612, -0.08074292540550232, -0.05432450398802757, -0.06728555262088776, -0.04701906070113182, 0.10735736787319183, 0.11509345471858978, 0.07188040763139725, -0.03162321820855141, -0.045734696090221405, -0.011435268446803093], [-0.09253926575183868, 0.029160691425204277, 0.13999974727630615, 0.06975807249546051, 0.030498838052153587, 0.17166496813297272, 0.037923526018857956, -0.1515711396932602, -0.13808086514472961, -0.04339800775051117, 0.13216519355773926, -0.00943056307733059, -0.10451813787221909, 0.14667558670043945, 0.07439833134412766, -0.18644993007183075, 0.008110055699944496, 0.029907088726758957, -0.10943006724119186, 0.08421754091978073, 0.03001093491911888, -0.04965244606137276, 0.039831843227148056, -0.06977807730436325, 0.054702259600162506, -0.03801868483424187, -0.12466447800397873, 0.10973799228668213, 0.11491605639457703, -0.059896234422922134, 0.11732558161020279, 0.06605987250804901, 0.05639840289950371, 0.08625689148902893, 0.12373936921358109, -0.056970782577991486, -0.12488801777362823, -0.0952753871679306, 0.10913128405809402, 0.12470252066850662, -0.0034406830091029406, -0.12029491364955902, 0.09794417023658752, 0.12241261452436447, 0.014383112080395222, 0.08544908463954926, -0.12364314496517181, -0.02489197626709938, -0.02630210667848587, 0.0036011715419590473, 0.11976886540651321, 0.08145089447498322, -0.12222006171941757, -0.11286550760269165, 0.12366903573274612, -0.12047882378101349, 0.09061578661203384, -0.08856939524412155, 0.10762625187635422, 0.05623310059309006, -0.10701429098844528, 0.09770069271326065, 0.12437604367733002, -0.12404891848564148, -0.07671535015106201, 0.11726728826761246, -0.09915196150541306, -0.12498220056295395, 0.12393093854188919, 0.03151572123169899, 0.12422768771648407, 0.12114597856998444, 0.05883846804499626, 0.09679557383060455, -0.12499148398637772, -0.021283620968461037, 0.10739320516586304, -0.11198216676712036, -0.10994428396224976, 0.022738222032785416, 0.12421252578496933, -0.10775373876094818, -0.03708026930689812, -0.10584650933742523, 0.12492074072360992, -0.12404028326272964, 0.04197671636939049, 0.09585382789373398, -0.12135016918182373, -0.0726127102971077, 0.032148540019989014, 0.10039908438920975, 0.11982057988643646, -0.12137282639741898, 0.07450952380895615, -0.09450369328260422, 0.04142174869775772, 0.11864689737558365, 0.08410919457674026, -0.125, -0.023442165926098824, 0.03853588178753853, 0.025577355176210403, 0.1247766837477684, -0.08882460743188858, 0.08617645502090454, 0.11651044338941574, -0.029463812708854675, -0.12345242500305176, 0.041021618992090225, 0.10282911360263824, 0.027110369876027107, 0.04201159626245499, -0.05955265834927559, 0.11587154865264893, 0.025774700567126274, 0.017510246485471725, 0.07545479387044907, -0.041487786918878555, -0.10970640182495117, -0.020248647779226303, -0.11520399153232574, -0.10562044382095337, 0.07873977720737457, -0.11535198241472244, 0.09677213430404663, 0.11566194146871567, -0.055009253323078156], [-0.07277674973011017, -0.11780793219804764, -0.06055988743901253, -0.12388808280229568, 0.10107408463954926, 0.06675393879413605, -0.07224371284246445, 0.12427401542663574, 0.04831661656498909, 0.10582464933395386, -0.10703342407941818, -0.11955467611551285, -0.10805092751979828, 0.10749625414609909, -0.06439559906721115, 0.04444093629717827, -0.07112417370080948, -0.09075736254453659, -0.10268613696098328, -0.007515846285969019, -0.08886796236038208, 0.014006879180669785, -0.0066034505143761635, -0.024855684489011765, 0.06947345286607742, 0.07037077099084854, -0.1240735873579979, 0.09217969328165054, -0.027423741295933723, 0.059237536042928696, 0.0789281502366066, 0.12235397100448608, 0.05947660282254219, 0.014804051257669926, -0.021429570391774178, -0.09821463376283646, 0.12373411655426025, 0.011972134001553059, 0.09804636985063553, 0.11971098184585571, 0.10108139365911484, 0.009852253831923008, 0.12496998906135559, -0.06578359752893448, -0.12264226377010345, 0.10854829102754593, 0.06569967418909073, -0.055142227560281754, 0.11978888511657715, -0.058282069861888885, -0.08801280707120895, -0.08430995047092438, -0.09514473378658295, -0.05195118486881256, 0.007918368093669415, 0.0543578565120697, 0.05154275521636009, 0.10350535809993744, 0.12491355091333389, -0.11762382090091705, -0.08441925793886185, -0.03983359411358833, -0.08457401394844055, 0.12431935966014862, -0.08606008440256119, 0.054520875215530396, -0.12175699323415756, -0.02552894316613674, -0.07555970549583435, -0.036442942917346954, -0.06797432899475098, 0.10364139080047607, 0.11838120222091675, -0.10690560936927795, -0.07388348132371902, 0.11510790139436722, -0.1045009046792984, 0.09654504805803299, -0.004695520270615816, 0.0034941798076033592, 0.042623523622751236, -0.12304022163152695, 0.020735805854201317, 0.021676911041140556, 0.05114128813147545, -0.06764236092567444, -0.12079248577356339, 0.12497908622026443, 0.007232269272208214, 0.0375046469271183, 0.07233434915542603, -0.04592230170965195, 0.12314761430025101, -0.05885659530758858, -0.036281563341617584, -0.0046831052750349045, 0.028053896501660347, -0.0167680811136961, -0.012521139346063137, -0.12496284395456314, -0.0701460987329483, -0.11996731162071228, 0.046423397958278656, -0.10682877153158188, 0.08878980576992035, 0.04551626741886139, 0.07390005141496658, 0.09006095677614212, -0.011447640135884285, -0.07334127277135849, -0.07962509989738464, 0.0872379019856453, -0.11908119916915894, -0.04414066672325134, 0.07337454706430435, -0.10939320921897888, -0.0571465827524662, -0.11667222529649734, -0.10503298789262772, -0.08744983375072479, 0.11814529448747635, 0.02738760970532894, 0.10701218992471695, -0.11849045753479004, -0.12400587648153305, -0.10362068563699722, 0.12101509422063828, 0.07066647708415985], [0.11776937544345856, 0.10790816694498062, 0.11867634952068329, -0.09430127590894699, 0.09567879885435104, 0.015370525419712067, -0.045934226363897324, -0.12636786699295044, -0.1247168630361557, 0.10309398174285889, -0.08301058411598206, -0.0953206866979599, -0.12085580825805664, -0.08104109764099121, 0.04080376401543617, -0.11198216676712036, 0.07028228789567947, -0.10900861769914627, -0.102391816675663, 0.05764026194810867, 0.12085684388875961, -0.08816180378198624, -0.043184082955121994, -0.04960808530449867, -0.011164732277393341, 0.010537326335906982, 0.0025189677253365517, -0.12075429409742355, 0.08020123094320297, 0.11528846621513367, 0.11658187210559845, -0.11040317267179489, -0.07144878059625626, -0.09883774071931839, -0.028106044977903366, -0.03924793750047684, -0.015400762669742107, 0.1081872507929802, 0.11377570778131485, 0.07714036852121353, -0.023636216297745705, -0.034884706139564514, -0.024399632588028908, -0.12179876118898392, 0.002037391532212496, 0.08406659215688705, 0.06116382032632828, 0.04041828215122223, 0.10460697114467621, 0.020045394077897072, -0.11351343989372253, -0.08698396384716034, -0.12197404354810715, 0.12411464005708694, -0.016319317743182182, -0.12499906122684479, 0.12455384433269501, 0.11225511878728867, -0.09528342634439468, -0.013802210800349712, 0.09676427394151688, -0.12446161359548569, 0.05387910082936287, 0.022628970444202423, -0.05533061921596527, 0.11174152046442032, 0.005990930367261171, 0.06476912647485733, -0.02534765750169754, -0.12479143589735031, 0.10000041872262955, 0.10491235554218292, -0.035745516419410706, 0.12395443767309189, 0.09017503261566162, 0.08337878435850143, 0.08743514865636826, 0.12416096776723862, -0.05106235668063164, -0.12496636807918549, -0.10228782892227173, 0.11491116881370544, 0.12250673025846481, -0.021356599405407906, -0.11279290914535522, 0.07963154464960098, 0.1137961819767952, -0.016662007197737694, 0.10617148131132126, -0.12339180707931519, -0.028093939647078514, -0.03266933560371399, 0.011775443330407143, 0.12254339456558228, 0.07108015567064285, -0.11774590611457825, -0.11941317468881607, 0.11879374831914902, -0.11090480536222458, 0.06935026496648788, -0.06409905105829239, 0.12042377144098282, 0.05476519465446472, -0.10528446733951569, 0.10165218263864517, 0.12329225987195969, -0.12211727350950241, -0.08662259578704834, 0.11060518771409988, -0.0871877521276474, -0.12281488627195358, 0.12461194396018982, 0.00400857487693429, 0.116976797580719, 0.12498918175697327, 0.06027878448367119, 0.09883525967597961, -0.12474330514669418, -0.029303811490535736, 0.10108139365911484, -0.10555432736873627, -0.10122890770435333, 0.0401611328125, 0.1247892901301384, -0.11858191341161728, -0.0625409260392189, -0.11896924674510956, 0.11950048804283142], [-0.1371273696422577, 0.017078405246138573, 0.07138844579458237, -0.13879798352718353, -0.07669968158006668, 0.03393039107322693, 0.07111397385597229, 0.10909949988126755, -0.14164891839027405, 0.08302776515483856, -0.13094457983970642, 0.04909607768058777, 0.08028547465801239, 0.059689961373806, -0.1324688345193863, -0.024941230192780495, 0.03428477421402931, 0.012638418935239315, 0.1053190752863884, -0.09595426917076111, 0.053992293775081635, 0.10399522632360458, -0.048844486474990845, -0.11882178485393524, 0.010656354948878288, 0.08090003579854965, 0.02870725281536579, 0.04508271813392639, -0.06522972136735916, 0.11255227029323578, 0.03687189891934395, 0.004461061675101519, 0.06178394705057144, -0.05799781531095505, -0.11827639490365982, 0.005871606525033712, -0.10163786262273788, -0.08588682860136032, 0.05089329555630684, -0.11597318202257156, 0.09466520696878433, 0.11798711121082306, -0.062241360545158386, -0.08178132772445679, -0.12153442949056625, -0.04575003683567047, -0.12499286234378815, 0.11208072304725647, 0.04329235479235649, -0.047917723655700684, 0.12375623732805252, 0.016792703419923782, 0.10494364798069, -0.10868888348340988, -0.11747823655605316, -0.10370346158742905, 0.11288850009441376, -0.05282948911190033, 0.02879142202436924, -0.055618371814489365, -0.10401720553636551, -0.08559928089380264, 0.02024039439857006, -0.10779125988483429, -0.01865868829190731, -0.004966965410858393, -0.021636439487338066, 0.06393282860517502, 0.07698480039834976, -0.12494345009326935, 0.10050927847623825, -0.011250872164964676, 0.07443679869174957, 0.09422023594379425, 0.11434821039438248, 0.08229992538690567, 0.04493672400712967, -0.05260917916893959, -0.09921957552433014, 0.12322654575109482, 0.01847558282315731, 0.09275858849287033, 0.11591166257858276, 0.09283030033111572, -0.006517081521451473, 0.12328003346920013, -0.08285307139158249, -0.12498562783002853, 0.11956185847520828, 0.03746544197201729, -0.08232779800891876, 0.11931052058935165, -0.06116027757525444, -0.09254303574562073, -0.09017222374677658, -0.08731742948293686, -0.06356455385684967, 0.02415331080555916, 0.03762245550751686, 0.0701051577925682, 0.11582668870687485, 0.12079887837171555, -0.10357001423835754, -0.10542397201061249, -0.03827737644314766, -0.08213255554437637, 0.1248311698436737, -0.0799388736486435, 0.043986618518829346, -0.11812780797481537, -0.04130135104060173, -0.08908192813396454, -0.056188926100730896, -0.08832205832004547, 0.08563826978206635, 0.12462127953767776, -0.12003986537456512, -0.07519854605197906, 0.11634567379951477, -0.1007632315158844, 0.1015370711684227, 0.006767828483134508, 0.016551896929740906, 0.057614605873823166, -0.11859626322984695, 0.0413363017141819, 0.046828173100948334, 0.024674195796251297], [-0.09146185964345932, -0.1249997690320015, 0.12493839114904404, 0.003959143999963999, 0.031204888597130775, 0.06550342589616776, -0.05638006702065468, 0.12471514940261841, -0.0727633461356163, -0.01871987245976925, -0.025794805958867073, 0.0020827800035476685, -0.04372440651059151, 0.01851622387766838, -0.11990470439195633, -0.06878412514925003, -0.11900585144758224, 0.05244115740060806, -0.11084964126348495, 0.09647702425718307, 0.033082399517297745, 0.08644139021635056, 0.10158024728298187, 0.009823434054851532, -0.050663843750953674, -0.09894850850105286, 0.06248403340578079, -0.1051645278930664, -0.045669540762901306, 0.07600165903568268, -0.11241220682859421, -0.04974401369690895, -0.12029153108596802, -0.11154897511005402, -0.09837227314710617, 0.111054427921772, 0.006311645731329918, 0.09122031182050705, -0.1243586614727974, -0.11630352586507797, -0.08196493238210678, 0.12141504883766174, 0.06793984025716782, 0.12163382768630981, 0.11792171001434326, 0.12380440533161163, -0.07747680693864822, 0.10831484198570251, -0.0006338431849144399, -0.022341541945934296, -0.1173284649848938, -0.11229860037565231, 0.119530588388443, -0.052172087132930756, -0.09425272792577744, -0.12165088206529617, -0.07594284415245056, 0.032979171723127365, -0.1064227819442749, 0.08071465790271759, -0.11606814712285995, -0.11163058131933212, 0.03799911215901375, 0.12485307455062866, -0.06640210002660751, -0.07076143473386765, -0.018182529136538506, -0.012795431539416313, 0.013798174448311329, -0.00403317017480731, -0.12261033803224564, 0.07108015567064285, 0.10959973186254501, 0.1214754655957222, -0.10083627700805664, -0.05302342399954796, -0.11260231584310532, -0.0004981403471902013, -0.008789177983999252, 0.01726963184773922, 0.10899855941534042, 0.11237979680299759, 0.08218837529420853, -0.01554775144904852, -0.023741310462355614, -0.03709601238369942, -0.12442751228809357, 0.019972283393144608, 0.0671640932559967, 0.08251657336950302, 0.06555591523647308, 0.08451647311449051, 0.05133262276649475, -0.11281771212816238, -0.08930689096450806, -0.1232389584183693, 0.12482074648141861, -0.0276043601334095, -0.1243632510304451, 0.1248646154999733, 0.1189907118678093, -0.08018546551465988, -0.03936110809445381, 0.11185746639966965, -0.12347880750894547, 0.08126642554998398, 0.021015888080000877, -0.052373919636011124, 0.1086522787809372, -0.0021979205776005983, 0.07429123669862747, -0.012398234568536282, -0.12277794629335403, 0.0881880521774292, 0.09187053889036179, -0.010028730146586895, 0.12445550411939621, 0.10872744768857956, 0.1046631708741188, 0.08859838545322418, 0.12449726462364197, -0.04501362890005112, -0.12450826913118362, -0.10843995958566666, 0.11942898482084274, 0.11820968240499496, -0.03882940858602524, -0.10202457755804062], [0.06370802968740463, 0.11089450120925903, -0.036793410778045654, 0.12728984653949738, -0.12225364148616791, -0.021519262343645096, -0.022935764864087105, 0.01396702229976654, 0.110263392329216, 0.07641059160232544, -0.11003026366233826, -0.1237156093120575, 0.11233444511890411, -0.08992034941911697, 0.034792687743902206, -0.06140913814306259, 0.12166858464479446, 0.043599240481853485, -0.09613332152366638, 0.12424427270889282, 0.12861007452011108, -0.11140158027410507, -0.11300133168697357, 0.08246765285730362, -0.07341457903385162, -0.11709102243185043, 0.11983350664377213, -0.023696741089224815, 0.10250981152057648, 0.12029381096363068, 0.06170874834060669, 0.10080704092979431, -0.12415237724781036, -0.03719821199774742, 0.09391941875219345, -0.09796717762947083, -0.09077723324298859, 0.05675078183412552, 0.12175234407186508, -0.12421482056379318, -0.0849098265171051, -0.1247529610991478, 0.10591661185026169, -0.12440285831689835, 0.0357494093477726, 0.0869307592511177, -0.11639077961444855, -0.05282948911190033, 0.056589361280202866, 0.07767370343208313, 0.1249999850988388, -0.12438464909791946, 0.10892187058925629, -0.12053892761468887, 0.0927281528711319, 0.08301949501037598, 0.08165676146745682, -0.1248273029923439, -0.010463523678481579, 0.05374540016055107, 0.002823516959324479, 0.12048868834972382, -0.06300021708011627, 0.05687187239527702, 0.1249440610408783, -0.07637687772512436, -0.11984872072935104, -0.020366283133625984, 0.05344430357217789, 0.03029920533299446, 0.048122864216566086, -0.07072755694389343, 0.10874983668327332, 0.04765898361802101, -0.008637120015919209, 0.047053370624780655, -0.07330450415611267, -0.12342127412557602, 0.031734615564346313, -0.08304717391729355, -0.060854990035295486, 0.019570060074329376, -0.11657445877790451, 0.09249323606491089, 0.1199880912899971, -0.06920628249645233, -0.0900980606675148, -0.12392609566450119, -0.030155474320054054, -0.12350430339574814, 0.11984165757894516, 0.017934061586856842, -0.021222878247499466, 0.11560413986444473, -0.01587839610874653, 0.10404462367296219, -0.11026966571807861, -0.11507900059223175, -0.09891083091497421, 0.11733126640319824, -0.04068315029144287, 0.012648072093725204, -0.038958605378866196, -0.11426486819982529, -0.0647621750831604, 0.04699603468179703, -0.12006509304046631, -0.05004959553480148, -0.0033296276815235615, -0.018402328714728355, 0.05821654200553894, 0.08326835930347443, -0.12476244568824768, 0.10773496329784393, 0.005114973057061434, 0.0880916565656662, 0.10678383708000183, 0.10133267194032669, 0.10105468332767487, 0.07229731976985931, -0.08019481599330902, -0.10020746290683746, 0.12263431400060654, 0.024928266182541847, 0.08707263320684433, 0.11113743484020233, 0.08355964720249176, -0.02277463488280773], [0.11903228610754013, -0.09752324223518372, -0.12185317277908325, 0.1246647760272026, 0.006920028943568468, -0.10388917475938797, 0.11881165951490402, -0.06399646401405334, -0.09681899845600128, -0.0956474170088768, -0.07875572890043259, -0.07447978854179382, 0.03997397422790527, 0.020106470212340355, 0.08663740754127502, 0.12307345867156982, 0.11071241647005081, -0.08312714099884033, -0.11922670155763626, -0.0367145799100399, -0.07963467389345169, 0.1249999850988388, -0.07347451150417328, 0.033082399517297745, -0.11320121586322784, -0.056365352123975754, -0.10075587779283524, -0.07430776208639145, -0.10480024665594101, 0.06340155005455017, 0.12317366898059845, -0.12497365474700928, -0.07650069892406464, 0.11750351637601852, -0.09674868732690811, 0.10609322786331177, 0.01817425526678562, 0.029427822679281235, 0.07161746919155121, -0.1116916835308075, 0.06073975935578346, 0.06992781907320023, -0.0030126869678497314, -0.1096392273902893, -0.12066774070262909, 0.1248762309551239, 0.0006832985091023147, 0.024819390848279, 0.05839131399989128, -0.06636364012956619, 0.12491293251514435, -0.08542205393314362, -0.0007697850815020502, -0.0461595244705677, -0.023979585617780685, -0.06851918250322342, 0.048411350697278976, -0.10665533691644669, -0.06741034239530563, -0.11796262860298157, 0.05831483006477356, -0.11439467966556549, 0.10335280746221542, 0.020285189151763916, 0.09750007092952728, 0.1109919622540474, 0.03081003576517105, -0.025766752660274506, -0.1133803129196167, 0.03387562930583954, -0.0840635895729065, -0.04719056934118271, 0.07857655733823776, -0.11512233316898346, -0.04212791100144386, -0.12289910763502121, -0.11683981120586395, -0.1076074093580246, 0.10165941715240479, -0.014947094954550266, 0.07143191993236542, -0.12407909333705902, -0.10142659395933151, -0.0547097772359848, 0.12179414182901382, 0.06516653299331665, 0.11995690315961838, 0.12038397043943405, 0.12170368432998657, -0.06678524613380432, 0.1155397817492485, -0.0185854509472847, -0.0011649413499981165, -0.10578304529190063, -0.09739188104867935, 0.12485664337873459, -0.020955123007297516, -0.09316857904195786, -0.12236237525939941, -0.07063592970371246, 0.025013010948896408, -0.0999683067202568, 0.09026052802801132, -0.12113684415817261, -0.11855324357748032, 0.017257563769817352, 0.12337929010391235, -0.04135975241661072, -0.09397362917661667, 0.014485158957540989, -0.014423931948840618, 0.01704954169690609, -0.010574226267635822, -0.12394005060195923, 0.061361245810985565, 0.10270725190639496, 0.124285489320755, -0.08917723596096039, -0.033062588423490524, -0.12143360078334808, 0.02713439054787159, 0.022211769595742226, 0.04876025766134262, 0.10979114472866058, 0.1109066754579544, 0.08701055496931076, -0.007392546162009239, -0.012398234568536282], [-0.047637276351451874, -0.12047313153743744, 0.04198375716805458, 0.05154131352901459, 0.10404322296380997, 0.09337197244167328, 0.06493096798658371, 0.0779581218957901, -0.1125306561589241, -0.08547260612249374, -0.11968978494405746, 0.12935657799243927, -0.028829962015151978, -0.11480848491191864, 0.12261746823787689, 0.12108517438173294, -0.06036297604441643, -0.06788170337677002, 0.12481866776943207, -0.1062193214893341, 0.10633604228496552, 0.023151127621531487, -0.0574105866253376, 0.09624168276786804, -0.010377337224781513, 0.0831885039806366, 0.0006873598322272301, -0.11865855008363724, 0.0745459720492363, 0.07616828382015228, 0.016127431765198708, 0.11880400776863098, 0.12057264149188995, 0.11879754066467285, 0.0897464007139206, 0.12474802881479263, -0.03884121775627136, -0.12351571023464203, -0.11368003487586975, 0.12263509631156921, 0.11188507080078125, -0.055496592074632645, -0.08830176293849945, 0.03349507972598076, 0.0803905576467514, -0.07381697744131088, 0.12493695318698883, -0.12282559275627136, -0.03443777561187744, -0.04511725530028343, 0.027937471866607666, 0.12498575448989868, 0.04811911657452583, -0.10285016894340515, -0.12499133497476578, 0.09896369278430939, -0.07781233638525009, 0.017754817381501198, -0.005049325991421938, 0.12102645635604858, 0.0518014170229435, -0.10160906612873077, 0.10870716720819473, 0.11954385787248611, -0.11519759148359299, -0.10348459333181381, 0.09173644334077835, -0.05811820551753044, -0.10797636955976486, 0.10980495810508728, -0.050230588763952255, 0.08171915262937546, 0.10738061368465424, 0.06312811374664307, 0.1027095690369606, -0.12322032451629639, -0.044932931661605835, 0.08596751093864441, -0.08930404484272003, -0.0787685289978981, 0.07216297090053558, 0.11518961936235428, -0.12440568208694458, -0.1030811294913292, -0.12284087389707565, 0.08509708195924759, -0.12455210834741592, 0.03259783983230591, 0.0821046382188797, -0.1131557747721672, -0.042228665202856064, 0.06794325262308121, 0.06420854479074478, 0.12371300160884857, -0.12048321217298508, 0.11930189281702042, -0.12487253546714783, 0.11052639037370682, 0.055968355387449265, 0.08040940016508102, -0.12461226433515549, -0.0039221299812197685, 0.061020202934741974, -0.008637120015919209, 0.11634419113397598, -0.04835077002644539, 0.04028984531760216, 0.12376894056797028, -0.09530198574066162, -0.10903888940811157, -0.05013255774974823, 0.022337544709444046, 0.03188595548272133, 0.05112995207309723, -0.07603105902671814, 0.10448057949542999, 0.05804521590471268, -0.021640438586473465, 0.03151572123169899, -0.08709028363227844, -0.12499205023050308, 0.05620728060603142, -0.06035098060965538, -0.03206910938024521, -0.013090095482766628, -0.11715570837259293, 0.09025771915912628, 0.12165939062833786], [-0.07587412744760513, -0.09765700995922089, -0.12495668232440948, -0.014043677598237991, -0.11945328861474991, 0.12413214892148972, -0.008209954015910625, 0.006521137431263924, 0.10032060742378235, -0.047464769333601, 0.10312773287296295, -0.11177469789981842, -0.11236357688903809, -0.09369361400604248, 0.12078720331192017, -0.028089983388781548, -0.0037122201174497604, -0.02149053104221821, -0.12120357155799866, -0.041087739169597626, 0.07142838835716248, -0.12493229657411575, -0.07802138477563858, -0.0016917177708819509, -0.01515557523816824, 0.05234029144048691, 0.08919448405504227, -0.12353210896253586, 0.11377739161252975, 0.02139308489859104, 0.09991879761219025, 0.11625512689352036, 0.0838775783777237, 0.11481371521949768, 0.09519801288843155, -0.10230197012424469, -0.10117814689874649, 0.12195783108472824, 0.031312454491853714, 0.08101289719343185, 0.10542846471071243, 0.07337125390768051, -0.0386415533721447, 0.1123148575425148, -0.10936927050352097, -0.11338213086128235, 0.12360478937625885, -0.024052269756793976, -0.11835340410470963, 0.11829239130020142, -0.0667886808514595, -0.10082893073558807, -0.10071202367544174, -0.0695316419005394, -0.08457700908184052, 0.055108994245529175, 0.0021733161993324757, 0.1006607711315155, 0.12492817640304565, 0.09515278786420822, -0.05755629390478134, -0.12488450855016708, -0.03514548018574715, -0.0770820826292038, 0.12482535094022751, -0.06669474393129349, 0.021899936720728874, -0.10703132301568985, -0.07046256214380264, -0.11033935099840164, -0.09027474373579025, -0.11668696999549866, 0.03803052008152008, 0.11412767320871353, -0.12136991322040558, -0.07778970897197723, 0.11858063191175461, -0.09246832132339478, 0.11019396781921387, 0.029427822679281235, 0.04198054224252701, 0.08439193665981293, -0.10246973484754562, 0.07838428020477295, 0.08996381610631943, -0.030550634488463402, -0.12105312943458557, -0.10809234529733658, 0.12479262053966522, -0.0025930162519216537, 0.01836569979786873, 0.051028553396463394, -0.07578904181718826, 0.12373879551887512, -0.09661557525396347, 0.017196273431181908, -0.06518752872943878, -0.0489913672208786, -0.08992664515972137, 0.0753200575709343, -0.08611984550952911, -0.06602498143911362, -0.11683836579322815, 0.06402827054262161, -0.11744865775108337, 0.10935932397842407, 0.007265184074640274, 0.10688640922307968, 0.11810082942247391, 0.050904422998428345, 0.0002592241216916591, -0.12220707535743713, 0.0031774896197021008, -0.05721987783908844, -0.04870349541306496, 0.08109747618436813, -0.11751614511013031, -0.03433096408843994, -0.12447300553321838, -0.12084738910198212, -0.11499685049057007, 0.09015517681837082, -0.035772986710071564, 0.048513978719711304, -0.11766556650400162, -0.08029282093048096, -0.02371715009212494, 0.12215232104063034], [0.06800064444541931, 0.1294969916343689, 0.13223810493946075, 0.12559860944747925, -0.056251849979162216, 0.1317283660173416, -0.01757367141544819, 0.011556985788047314, -0.10901748389005661, -0.05850826948881149, 0.12200949341058731, 0.010434404946863651, -0.09214559942483902, -0.11612864583730698, -0.07766944915056229, -0.016095206141471863, -0.09730680286884308, 0.08744165301322937, -0.11528127640485764, -0.10034459084272385, 0.004347881767898798, 0.12572543323040009, -0.0350380502641201, -0.13472311198711395, 0.046163298189640045, -0.016049955040216446, 0.02028919756412506, -0.017086228355765343, -0.12473773956298828, 0.05112624540925026, 0.09468673169612885, 0.12496373802423477, -0.07566796243190765, -0.012144303880631924, -0.12494467943906784, 0.05342550948262215, 0.05184251070022583, 0.07691984623670578, 0.11056486517190933, 0.10935735702514648, 0.0915936604142189, 0.000794392719399184, -0.0009508795919828117, -0.061131518334150314, -0.12327390909194946, 0.05423540621995926, 0.028069959953427315, 0.11359941959381104, 0.1050262525677681, 0.03025539591908455, 0.10148897767066956, -0.11136824637651443, -0.09376711398363113, -0.12475037574768066, 0.12462479621171951, -0.04938496649265289, -0.11901593208312988, 0.11909245699644089, 0.12496693432331085, -0.04352783039212227, -0.08426125347614288, 0.12498177587985992, -0.09919209778308868, 0.11789434403181076, 0.01777917519211769, -0.04635462537407875, 0.10158748924732208, -0.01851220615208149, 0.0913860946893692, 0.013765404932200909, -0.11250389367341995, 0.059357210993766785, 0.058260299265384674, 0.04157702252268791, 0.10727933049201965, 0.1249799057841301, 0.12481630593538284, 0.09087900817394257, 0.12491308897733688, -0.03256208822131157, -0.12199293076992035, -0.11796397715806961, 0.12449430674314499, 0.10364139080047607, -0.07101233303546906, -0.07202185690402985, 0.007692555896937847, 0.05725279822945595, -0.09640102833509445, 0.12169806659221649, -0.12251081317663193, -0.037575289607048035, -0.05116374045610428, 0.03585585206747055, 0.12463303655385971, 0.035780999809503555, -0.09268408268690109, -0.12390609830617905, 0.08458316326141357, -0.05574372038245201, -0.01002444326877594, 0.025887371972203255, 0.10879045724868774, 0.0503060556948185, -0.09966600686311722, 0.11179127544164658, 0.11689533293247223, -0.1102677583694458, -0.11025413870811462, 0.07985343039035797, -0.04161600023508072, -0.09573487937450409, 0.09496568143367767, -0.074281245470047, 0.0558873750269413, 0.08713175356388092, 0.06453663110733032, 0.10454152524471283, -0.121949702501297, -0.052474770694971085, 0.0772925540804863, -0.0796600878238678, -0.06540877372026443, 0.08607792854309082, 0.10529116541147232, -0.11914611607789993, -0.11615653336048126, -0.11335092782974243], [0.06626766175031662, -0.10958948731422424, 0.04256070405244827, 0.08714549243450165, -0.10848711431026459, -0.01809120364487171, 0.10009967535734177, 0.04149730131030083, 0.10062391310930252, -0.09083076566457748, 0.12595392763614655, -0.12327698618173599, 0.12367616593837738, 0.03397415578365326, 0.0660237967967987, -0.1591031700372696, -0.0016596679342910647, 0.05523044988512993, -0.009942611679434776, 0.1364789456129074, -0.023353537544608116, 0.03344166651368141, 0.09569931030273438, -0.13624584674835205, -0.09283862262964249, -0.07680623233318329, -0.010295192711055279, 0.03346722573041916, 0.054101910442113876, -0.0811256468296051, 0.09976282715797424, 0.06794325262308121, -0.03440608084201813, 0.01543751172721386, -0.09906911849975586, -0.12294322997331619, 0.07821740955114365, -0.03467128798365593, -0.00130493997130543, -0.044856004416942596, -0.11771684139966965, 0.08796019852161407, 0.12299641221761703, -0.082216277718544, -0.1043945923447609, -0.12461485713720322, 0.0023089987225830555, -0.11292386800050735, 0.12482795119285583, -0.03399427980184555, 0.033942773938179016, 0.0788484588265419, -0.07580860704183578, 0.10219312459230423, -0.11320293694734573, -0.10933941602706909, -0.0880741998553276, 0.12322722375392914, -0.015188301913440228, -0.020008839666843414, -0.0035765734501183033, -0.12463240325450897, -0.015613178722560406, 0.09232961386442184, -0.12209263443946838, -0.10066317766904831, -5.351737127057277e-05, -0.011898408643901348, 0.04632022976875305, 0.0947377160191536, -0.12126277387142181, 0.11857019364833832, 0.03730425983667374, 0.10967282950878143, 0.12235983461141586, 0.06274767965078354, 0.12289683520793915, 0.11222609877586365, -0.11742041260004044, -0.1021314486861229, 0.12119755148887634, 0.03761060908436775, 0.07460540533065796, 0.09883277118206024, 0.062377020716667175, -0.05384568125009537, 0.1032671332359314, -0.11804813146591187, -0.0999436303973198, 0.11643429100513458, -0.053540825843811035, -0.1247323751449585, 0.1177527979016304, -0.0695350170135498, -0.10456182062625885, -0.10534431040287018, -0.05972273647785187, -0.09374530613422394, 0.06929877400398254, -0.01580492965877056, 0.11176913976669312, 0.12130959331989288, 0.07488920539617538, -0.028434887528419495, -0.12201087921857834, -0.033570341765880585, -0.07447652518749237, 0.12430772930383682, -0.0596286877989769, 0.010533278807997704, -0.099685899913311, -0.08335118740797043, -0.11763352155685425, -0.10362750291824341, -0.12346144765615463, 0.010779419913887978, 0.09804132580757141, -0.10947484523057938, -0.07906535267829895, 0.11957627534866333, -0.08793388307094574, 0.11382167786359787, 0.04043387994170189, 0.05407218262553215, 0.09571889787912369, -0.09112174808979034, 0.09375889599323273, 0.10605834424495697], [-0.05657828599214554, -0.12499945610761642, -0.08813267201185226, 0.12468758225440979, -0.005867549683898687, 0.011861544102430344, 0.04344674199819565, -0.08457700908184052, 0.12120562046766281, -0.10615193843841553, 0.0348055474460125, -0.08232779800891876, -0.07185675948858261, -0.10688851773738861, 0.09758239984512329, -0.05970111861824989, -0.06462827324867249, -0.11563383042812347, 0.0695657879114151, -0.11999846994876862, 0.11444604396820068, -0.005834614858031273, 0.11443941295146942, 0.12275934219360352, 0.06952469050884247, 0.02627384290099144, -0.12499241530895233, -0.027716662734746933, -0.026467215269804, -0.05020805448293686, 0.08356267213821411, -0.11958705633878708, -0.026386652141809464, -0.125, -0.12352768331766129, -0.12041383981704712, 0.07678040862083435, -0.05556294694542885, 0.02347056195139885, -0.10543514043092728, -0.054205913096666336, 0.008895705454051495, 0.12248951196670532, 0.05948752909898758, 0.11561976373195648, 0.12374983727931976, 0.11445766687393188, -0.04332709312438965, 0.12395443767309189, -0.0529673807322979, 0.040675241500139236, -0.0694974884390831, -0.054109446704387665, 0.11254873126745224, 0.04354305565357208, -0.09095246344804764, -0.1235327273607254, -0.05945495888590813, 0.008793230168521404, -0.08459828794002533, 0.10628431290388107, -0.12498966604471207, -0.12492676824331284, -0.025109678506851196, 0.10451676696538925, 0.013519840314984322, -0.12193246930837631, 0.07468780875205994, -0.017673222348093987, 0.02351491153240204, -0.023551281541585922, -0.12499996274709702, 0.040461234748363495, 0.0856262594461441, 0.1234985888004303, -0.06058872863650322, 0.009125661104917526, -0.1229817271232605, 0.07707549631595612, 0.078275166451931, 0.0998246893286705, 0.11131960153579712, 0.10773290693759918, 0.09592510014772415, 0.008977921679615974, 0.010504472069442272, -0.07220666110515594, -0.11951134353876114, 0.06985274702310562, 0.007010437548160553, 0.12196771800518036, 0.11740770936012268, -0.0005679026362486184, 0.11693168431520462, -0.11061476171016693, -0.09590134769678116, -0.1249927282333374, 0.1237235814332962, -0.059697337448596954, -0.1143631637096405, 0.11310853064060211, 0.12408357113599777, -0.02302970550954342, -0.10163535922765732, 0.12236408144235611, -0.07738640159368515, 0.12463270872831345, 0.016156097874045372, -0.04329616576433182, 0.09763135015964508, -0.0265676099807024, 0.09881506860256195, 0.026692263782024384, -0.10441955178976059, 0.042936909943819046, 0.03866518288850784, 0.06520505994558334, 0.0904512107372284, 0.12167736142873764, 0.12230829894542694, 0.09199599921703339, 0.12499232590198517, -0.026193486526608467, -0.11994648724794388, -0.12125575542449951, 0.1249861866235733, 0.09362003207206726, -0.08505471795797348], [-0.05411922186613083, -0.019213929772377014, 0.030593762174248695, -0.1137361004948616, 0.10974468290805817, -0.12239609658718109, -0.041377924382686615, -0.05776749178767204, 0.042915552854537964, 0.12301097065210342, 0.022324416786432266, -0.0816882848739624, -0.1209755465388298, 0.06695174425840378, -0.03150925412774086, -0.03759142383933067, 0.05482637882232666, 0.08890137076377869, 0.04802820459008217, -0.09832468628883362, 0.1137736365199089, 0.11295044422149658, -0.10441048443317413, -0.1158127561211586, 0.06660076230764389, -0.024250352755188942, -0.08072104305028915, 0.07596580684185028, -0.09465974569320679, 0.026607997715473175, 0.0609305240213871, 0.06593406945466995, 0.10630166530609131, -0.12034400552511215, -0.059791356325149536, 0.06796751171350479, -0.0691412091255188, -0.050927117466926575, 0.09820695221424103, 0.09234362840652466, -0.1086665689945221, -0.12348964065313339, -0.09686854481697083, 0.027837328612804413, -0.12478641420602798, 0.026229696348309517, 0.07178949564695358, -0.10524452477693558, -0.020053647458553314, 0.0882958471775055, 0.03422413021326065, 0.11351864039897919, -0.10242729634046555, 0.12415573745965958, -0.11511116474866867, 0.12499094754457474, -0.007495097350329161, 0.07787346094846725, -0.12392556667327881, 0.009174983948469162, 0.07475388795137405, -0.031244678422808647, 0.10428130626678467, -0.01682939939200878, 0.00497937947511673, 0.1108040064573288, -0.11997998505830765, -0.07204880565404892, -0.09874185919761658, -0.042224619537591934, 0.03504274785518646, 0.05703669786453247, -0.0859973356127739, 0.09461682289838791, 0.07726982980966568, -0.04679383710026741, -0.0009054862894117832, -0.10899247974157333, -0.11733414977788925, 0.09680070728063583, -0.007277586963027716, 0.02953973039984703, -0.07355760037899017, -0.11825775355100632, 0.08560223877429962, 0.12399547547101974, -0.0882054939866066, -0.11025413870811462, -0.12290438264608383, 0.01862207055091858, -0.10405150800943375, 0.12190891057252884, -0.05828925594687462, 0.05968642234802246, 0.052512284368276596, -0.09897361695766449, 0.10124096274375916, -0.11455339938402176, -0.10601482540369034, -0.08207671344280243, 0.12463082373142242, -0.0021198068279772997, -0.035962264984846115, 0.014411590993404388, -0.12445204704999924, 0.010545420460402966, 0.10866644978523254, -0.11172127723693848, -0.1164282038807869, 0.001584692276082933, -0.008633067831397057, 0.04017289727926254, 0.09987428039312363, -0.11797353625297546, 0.12206073850393295, 0.05257558450102806, 0.11715137958526611, 0.12492117285728455, 0.03886869549751282, 0.12490444630384445, 0.12233113497495651, -0.12451733648777008, -0.10306721180677414, 0.12035401165485382, 0.04380542039871216, 0.06787765771150589, 0.09140581637620926, 0.0506976954638958], [-0.06812623888254166, 0.09207683056592941, -0.12330847233533859, -0.0821264386177063, 0.10350777208805084, -0.07972653210163116, -0.12259030342102051, 0.11719299107789993, -0.07223357260227203, -0.10800741612911224, -0.10952439159154892, -0.04941152036190033, -0.10188400000333786, 0.08229992538690567, -0.0334552563726902, 0.11964082717895508, 0.11237624287605286, 0.05092340707778931, 0.002440617885440588, -0.11080212891101837, -0.031989436596632004, -0.07181980460882187, 0.12344856560230255, -0.052306659519672394, -0.0009219711646437645, -0.0912456214427948, -0.09481015801429749, -0.12248703837394714, -0.11397934705018997, -0.12482687085866928, -0.017004569992423058, 0.07590697705745697, -0.09010104089975357, -0.08032742142677307, 0.12048976868391037, -0.08315782994031906, 0.1169607937335968, 0.05109986290335655, 0.06556995213031769, 0.1054040715098381, -0.07788317650556564, 0.10641839355230331, 0.11750628799200058, -0.07980894297361374, -0.12123477458953857, -0.06215224787592888, 0.1245611160993576, -0.00913805142045021, 0.005324798170477152, 0.035678431391716, -0.09265361726284027, 0.11734123528003693, -0.11386755108833313, 0.05169267579913139, -0.09708396345376968, -0.09157398343086243, -0.11856625974178314, 0.11382503807544708, -0.029203930869698524, -0.06322047114372253, -0.1143498495221138, 0.07491215318441391, -0.12203317135572433, 0.11857019364833832, -0.018870331346988678, 0.12002953141927719, 0.12487085908651352, 0.08613161742687225, 0.05113736167550087, -0.12159866094589233, -0.05690101906657219, 0.006093543954193592, -0.05170398950576782, 0.08597046136856079, -0.12132938951253891, -0.018329069018363953, -0.12447565048933029, -0.1248512789607048, -0.12376546114683151, 0.06181260943412781, -0.07374387979507446, -0.002601137151941657, -0.08799244463443756, -0.024775134399533272, 0.040900856256484985, 0.12280566990375519, 0.05658574029803276, 0.1129714623093605, 0.12463899701833725, 0.10937332361936569, -0.030818140134215355, 0.12499983608722687, -0.06868434697389603, 0.06012719124555588, -0.046347081661224365, -0.027873428538441658, 0.09567401558160782, 0.07241810858249664, -0.08982087671756744, -0.12399078905582428, -0.0536116287112236, 0.0006092354306019843, -0.07581202685832977, 0.11258623003959656, -0.12370769679546356, -0.12424540519714355, -0.045508477836847305, 0.08795442432165146, 0.04064406454563141, -0.12495438009500504, 0.09811005741357803, -0.01929345354437828, 0.026724472641944885, -0.02995162643492222, -0.12472561001777649, 0.029455918818712234, 0.07562535256147385, 0.11991516500711441, -0.04425240680575371, 0.03013135865330696, -0.11563074588775635, 0.09691518545150757, 0.09987916052341461, 0.11591005325317383, 0.1120552197098732, 0.10603444278240204, 0.09999296814203262, 0.017122911289334297], [0.04443616792559624, -0.03356921300292015, -0.07077888399362564, 0.11366455256938934, -0.013271949253976345, 0.17441067099571228, 0.20632514357566833, -0.05315691977739334, 0.06089101731777191, -0.03410554304718971, -0.0843757763504982, -0.10279253870248795, 0.14305907487869263, -0.015048887580633163, -0.13931125402450562, -0.0055970484390854836, 0.12410290539264679, -0.03381248190999031, -0.05629802122712135, 0.2199772447347641, 0.005942351184785366, 0.18140871822834015, -0.061667345464229584, -0.12583212554454803, 0.09340696036815643, -0.03450896963477135, 0.10541293025016785, 0.039325959980487823, -0.0945441797375679, 0.025625761598348618, 0.017950374633073807, 0.08597635477781296, 0.06915156543254852, 0.11086873710155487, 0.111444853246212, 0.09309718757867813, 0.12498568743467331, -0.01975291594862938, -0.1173851490020752, -0.12352768331766129, 0.12410533428192139, 0.08199288696050644, -0.09733239561319351, -0.033736929297447205, -0.04377834498882294, 0.003770012641325593, -0.12270233780145645, 0.09106825292110443, -0.1218181848526001, -0.04377073422074318, -0.062818743288517, 0.05119752511382103, 0.1207946389913559, 0.010065642185509205, -0.06778434664011002, -0.11409910023212433, 0.04896125569939613, -0.005353680811822414, -0.06274747103452682, 0.08115999400615692, 0.0633661299943924, 0.047289665788412094, -0.09557584673166275, 0.11703035980463028, 0.11010643094778061, -0.09767505526542664, -0.12009939551353455, 0.05220573768019676, -0.006381558254361153, -0.06336963176727295, 0.05363773927092552, -0.11035865545272827, -0.004312784876674414, 0.030566852539777756, 0.06732018291950226, 0.10798876732587814, -0.11840764433145523, -0.06685127317905426, 0.058070819824934006, -0.05786295607686043, -0.03557194396853447, 0.10829838365316391, 0.07672195136547089, -0.0934261679649353, -0.12471793591976166, -0.07441050559282303, -0.004691222216933966, -0.12487142533063889, 0.02301749587059021, 0.06632880866527557, -0.10060223937034607, -0.008665959350764751, 0.09707102179527283, 0.01821916550397873, 0.10482276976108551, -0.08879569172859192, 0.11841690540313721, -0.10149873793125153, 0.12076497077941895, -0.03957193344831467, 0.0765853151679039, -0.12345437705516815, 0.015694718807935715, 0.08115381747484207, -0.0422014556825161, 0.09649540483951569, -0.0004981403471902013, -0.013016436249017715, 0.09938963502645493, -0.12465169280767441, -0.04769719019532204, -0.11458626389503479, -0.07126948982477188, 0.03661225363612175, 0.059932298958301544, -0.09063273668289185, 0.08906465768814087, 0.08594652265310287, -0.058667656034231186, -0.017232952639460564, -0.11665447056293488, -0.1083272397518158, 0.11114301532506943, 0.02047588676214218, 0.05856214463710785, -0.09723412990570068, -0.11877835541963577, 0.08318547159433365], [0.12465384602546692, -0.09381607919931412, -0.11518637090921402, -0.11984403431415558, 0.03461573272943497, -0.09302030503749847, 0.11545956879854202, -0.08003048598766327, 0.08247941732406616, 0.022936709225177765, -0.115377277135849, 0.10027141124010086, -0.11582516133785248, -0.10239893943071365, -0.07572689652442932, 0.1249861866235733, 0.010971969924867153, -0.05129885673522949, 0.03210074454545975, -0.12066774070262909, 0.036242008209228516, 0.11963127553462982, -0.09445801377296448, -0.1242394894361496, 0.0032226296607404947, -0.005361796356737614, 0.03391518071293831, 0.10458210855722427, -0.11369205266237259, 0.1242106705904007, 0.06694512069225311, 0.12219928205013275, 0.12386497110128403, 0.013286815024912357, 0.12073729932308197, 0.12488976120948792, -0.1231079027056694, -0.1039852648973465, 0.11942778527736664, 0.04987987130880356, 0.06085854023694992, 0.08321008086204529, 0.038461554795503616, -0.0812382847070694, 0.07897612452507019, -0.12499798089265823, -0.060711149126291275, 0.08546425402164459, -0.1009940430521965, -0.11207352578639984, 0.11661304533481598, -0.07488250732421875, -0.11115624010562897, -0.11323432624340057, -0.038684722036123276, -0.10890369117259979, 0.09388945251703262, -0.05041145533323288, 0.1240478903055191, 0.09851949661970139, 0.02444016933441162, 0.03316556662321091, -0.09202397614717484, -0.03040303662419319, -0.06911373883485794, 0.12225019931793213, -0.04476010054349899, -0.012369466945528984, -0.08180318772792816, -0.10464292019605637, -0.1247991994023323, -0.12103051692247391, -0.1207234337925911, -0.04394792765378952, 0.04909004271030426, -0.06457202881574631, -0.08157569169998169, 0.12132047861814499, -0.07815328240394592, 0.11959783732891083, 0.061336055397987366, 0.07634755223989487, 0.11328133195638657, -0.06302869319915771, 0.11599616706371307, 0.12380608916282654, -0.09909417480230331, -0.10999131202697754, -0.03192591667175293, 0.12441326677799225, -0.012402275577187538, -0.0012265787227079272, 0.027756964787840843, -0.09995094686746597, 0.11218808591365814, -0.11963009089231491, 0.0675072893500328, -0.10902871936559677, -0.1072792112827301, -0.12438258528709412, 0.12304598838090897, 0.003288308857008815, -0.061801809817552567, -0.11298730969429016, 0.0800526961684227, -0.12354402244091034, 0.1216970831155777, -0.0316987968981266, 0.12356088310480118, 0.12439156323671341, 0.10024429857730865, 0.07376047223806381, -0.11219356954097748, -0.0825752466917038, 0.038238026201725006, -0.05319104343652725, 0.08831918239593506, -0.12273835390806198, -0.010192804969847202, -0.12290438264608383, -0.12480361759662628, -0.12499424070119858, 0.045562323182821274, -0.08978930115699768, -0.028558876365423203, -0.06619976460933685, 0.006183984223753214, 0.07011187821626663], [0.1190401166677475, 0.046316854655742645, 0.10342825204133987, 0.11930418759584427, 0.10086482018232346, -0.02343164011836052, 0.1156216487288475, -0.08211280405521393, 0.08109959959983826, -0.029274001717567444, -0.0033842886332422495, 0.07090020924806595, 0.09229875355958939, -0.09379679709672928, -0.12134183943271637, -0.03888275846838951, -0.007607648149132729, -0.06224612146615982, 0.11337676644325256, -0.12964583933353424, -0.12510529160499573, -0.06911282241344452, 0.07538758218288422, 0.07457885891199112, -0.12026805430650711, 0.11482995748519897, -0.020910369232296944, 0.029915671795606613, -0.036269672214984894, -0.12391585856676102, 0.018202856183052063, 0.06479384750127792, 0.11427493393421173, -0.026997940614819527, 0.050264496356248856, -0.10321379452943802, 0.11196379363536835, 0.11532177031040192, 0.12407706677913666, 0.11277158558368683, 0.10426312685012817, 0.10378608852624893, 0.025194399058818817, 0.033054523169994354, -0.09186486899852753, -0.10593627393245697, 0.09644557535648346, -0.035101912915706635, 0.12254098802804947, 0.12443302571773529, -0.06021012365818024, 0.12334343045949936, -0.10905091464519501, -0.099970743060112, -0.12444741278886795, 0.12033398449420929, -0.07873328030109406, -0.10135434567928314, 0.09545640647411346, 0.11466517299413681, 0.019354352727532387, -0.12245902419090271, 0.09940962493419647, -0.021093133836984634, 0.11268807202577591, 0.01290189940482378, -0.03709213435649872, 0.08892591297626495, -0.04230219125747681, 0.1111242026090622, 0.051527734845876694, -0.08304717391729355, 0.0077829319052398205, -0.0032842489890754223, 0.10298088937997818, 0.04443334415555, 0.09322080761194229, 0.09296809881925583, 0.09418238699436188, 0.1248931884765625, -0.013258068822324276, -0.11431991308927536, -0.12476066499948502, 0.12186142057180405, 0.06895938515663147, -0.10759063065052032, -0.012840586714446545, -0.0671916976571083, -0.023931046947836876, -0.12479711323976517, 0.06576978415250778, -0.12144045531749725, -0.04682441055774689, -0.06839524209499359, 0.05855496600270271, 0.11734123528003693, -0.0030291674192994833, -0.05347777530550957, -0.10558081418275833, 0.0287514328956604, 0.020760072395205498, -0.08508483320474625, 0.10208624601364136, 0.033280957490205765, 0.045769158750772476, -0.09343156218528748, 0.11917094886302948, 0.10599520057439804, -0.09011809527873993, -0.1230669766664505, 0.03691527247428894, 0.011619639582931995, -0.04418313130736351, 0.028959719464182854, -0.12060189992189407, -0.03496751934289932, -0.00188498105853796, 0.06869472563266754, 0.10960168391466141, -0.11614593863487244, -0.07362422347068787, 0.04768570512533188, -0.04594918712973595, -0.019606634974479675, 0.11614284664392471, 0.05887851491570473, -0.07409261167049408, -0.11978068947792053], [-0.05435122177004814, -0.04037095978856087, -0.1272454410791397, 0.013691650703549385, 0.059528082609176636, -0.09616676717996597, 0.011473667807877064, 0.0977402999997139, -0.00609993701800704, 0.09331337362527847, -0.07594455778598785, 0.10184067487716675, -0.062044162303209305, 0.1121111810207367, -0.09297824651002884, 0.04934743046760559, -0.14101079106330872, -0.0048414673656225204, 0.08528370410203934, -0.0343310721218586, 0.08535405248403549, 0.018569691106677055, -0.061197925359010696, 0.05087365210056305, -0.12386220693588257, -0.020987626165151596, -0.12336202710866928, -0.09544561058282852, 0.038175467401742935, 0.06278672814369202, -0.09501910209655762, 0.08313017338514328, 0.09390033781528473, -0.0698971226811409, -0.03326483815908432, -0.12189612537622452, -0.09618332982063293, 0.12061595916748047, 0.04721711575984955, 0.08397195488214493, -0.11426816135644913, -0.11927855014801025, 0.08071155101060867, 0.1249697133898735, -0.09902393817901611, -0.11914980411529541, -0.11546743661165237, 0.050015658140182495, -0.08005911856889725, 0.10566667467355728, -0.09826545417308807, 0.10119497776031494, -0.00805379543453455, -0.12389899045228958, 0.09928464144468307, -0.11701734364032745, -0.09850170463323593, -0.06905201822519302, 0.12429032474756241, 0.02394324168562889, -0.06575556099414825, 0.04912387579679489, -0.11338906735181808, 0.060350771993398666, 0.12468201667070389, -0.0713677927851677, -0.12356340885162354, 0.004860013723373413, -0.0020868408028036356, 0.02756427973508835, 0.10884100943803787, -0.10845433920621872, 0.12499640136957169, 0.08016640692949295, 0.12471180409193039, 0.11922182142734528, -0.012877183966338634, 0.11060140281915665, 0.11974414438009262, -0.11328840255737305, -0.10488545894622803, 0.11841950565576553, 0.055817268788814545, 0.053578171879053116, 0.07431448251008987, 0.025802988559007645, -0.09295691549777985, 0.0642368346452713, -0.12306772917509079, -0.03663600981235504, 0.06319573521614075, -0.11603138595819473, -0.09390049427747726, 0.1160130724310875, -0.07747999578714371, -0.11399964243173599, -0.11645817756652832, -0.02763255499303341, -0.11472729593515396, 0.10386857390403748, -0.0663217231631279, 0.12486270070075989, 0.08034645766019821, -0.0032512894831597805, 0.061844583600759506, -0.06695924699306488, -0.028811415657401085, -0.06636019796133041, 0.12071593105792999, -0.03702139854431152, -0.023712927475571632, -0.07146230340003967, -0.1126808300614357, -0.12452203780412674, -0.12457682192325592, -0.11133090406656265, -0.06871867924928665, 0.019244825467467308, -0.03463180363178253, -0.08280995488166809, 0.12206783890724182, -0.07293400913476944, 0.12172148376703262, 0.07105637341737747, 0.08628663420677185, 0.11921557039022446, -0.04686649516224861, 0.12221485376358032], [0.1246817484498024, -0.11348060518503189, -0.09196267277002335, 0.0004814153944607824, 0.12424404174089432, -0.015657978132367134, -0.0077745853923261166, 0.019716346636414528, -0.10640761256217957, 0.10580276697874069, -0.12334071844816208, 0.08192127197980881, -0.11781615763902664, -0.11828435212373734, -0.12404994666576385, 0.12467644363641739, 0.03555591031908989, -0.06037253141403198, -0.11154714226722717, 0.0849732756614685, -0.1245245411992073, 0.12380041927099228, -0.04417910799384117, 0.1249728873372078, 0.12133140116930008, 0.11145404726266861, 0.0931520089507103, -0.0972420871257782, -0.10315553843975067, 0.06777029484510422, -0.054668959230184555, 0.09060722589492798, -0.12381007522344589, -0.002012786688283086, -0.12029939144849777, -0.1233852282166481, -0.12407909333705902, 0.02836671657860279, -0.10323454439640045, -0.05326540395617485, -0.04113444313406944, 0.03676162287592888, 0.09453324228525162, 0.12337464839220047, 0.05066755786538124, 0.10675177723169327, 0.12481069564819336, 0.09649540483951569, -0.004925904329866171, 0.1206773966550827, -0.09554658830165863, 0.09329462051391602, 0.004942137282341719, 0.027367327362298965, 0.04562372341752052, 0.11369194835424423, -0.08751160651445389, -0.12465108931064606, -0.041499506682157516, -0.015731455758213997, -0.056405868381261826, 0.12142480909824371, -0.11483656615018845, -0.11521678417921066, -0.0817999392747879, 0.044163912534713745, 0.08762311190366745, -0.10816258937120438, 0.12370529770851135, -0.02252369560301304, 0.03308631852269173, -0.042488064616918564, -0.12257417291402817, 0.006796694826334715, 0.05325070768594742, 0.10667464137077332, -0.009183323942124844, 0.06894204765558243, -0.0862748771905899, 0.12147738039493561, 0.12365036457777023, 0.12376780807971954, 0.11346857994794846, 0.10242017358541489, 0.10729404538869858, 0.03315773606300354, 0.04395955801010132, -0.10023202747106552, -0.096356600522995, 0.10686931014060974, -0.05493522807955742, 0.11472084373235703, 0.11872957646846771, -0.08534981310367584, 0.11387445032596588, -0.10824082791805267, -0.10190309584140778, -0.12366123497486115, 0.11786016076803207, -0.0872967466711998, -0.09314117580652237, 0.08409099280834198, 0.10632553696632385, 0.0400129072368145, -0.12499627470970154, 0.08020764589309692, 0.00992179848253727, 0.09482105076313019, 0.011271335184574127, -0.03395082429051399, 0.08420053124427795, -0.04991382360458374, 0.11590083688497543, 0.06316357851028442, -0.07012572884559631, -0.010221377946436405, -0.024423766881227493, 0.1154736578464508, 0.017518527805805206, 0.06982222944498062, 0.06814026087522507, 0.0952514111995697, 0.12471487373113632, -0.0067267948761582375, -0.11076394468545914, -0.12494431436061859, 0.1182790994644165, 0.054743073880672455], [-0.1156165823340416, 0.008427601307630539, -0.0876612737774849, -0.050449054688215256, -0.11919335275888443, 0.0359782800078392, -0.12104186415672302, -0.04984591156244278, -0.07378380745649338, 0.06566105037927628, 0.11290090531110764, -0.01609070785343647, -0.03825394809246063, -0.09487193822860718, 0.007709010038524866, 0.04596429318189621, -0.10321594774723053, 0.1167149618268013, 0.0009222109219990671, 0.044240787625312805, -0.0912230834364891, 0.12098409980535507, 0.10142896324396133, -0.08180318772792816, -0.12468290328979492, 0.020991630852222443, 0.02937975339591503, -0.02371715009212494, 0.0030129265505820513, -0.12488308548927307, -0.0634651631116867, -0.034208040684461594, 0.0700574740767479, 0.11113929748535156, -0.1135651096701622, -0.08008113503456116, 0.03689952194690704, -0.03353075310587883, -0.0033050281926989555, 0.12157759070396423, 0.03933004289865494, -0.051512934267520905, -0.10892198234796524, -0.017392195761203766, -0.06658660620450974, -0.12497708201408386, 0.01654786989092827, 0.05487620085477829, -0.09004389494657516, 0.014231684617698193, 0.1113382875919342, -0.014448375441133976, 0.08113200962543488, -0.054287493228912354, 0.09185384958982468, -0.060141853988170624, 0.09068389236927032, -0.09360895305871964, 0.07396978884935379, -0.12225791811943054, 0.028587020933628082, 0.09288260340690613, -0.06296100467443466, 0.07784131169319153, 0.031909748911857605, -0.04783010482788086, 0.0683402344584465, -0.11764612048864365, 0.0067594777792692184, -0.12452778220176697, -0.11310140788555145, 0.03973212465643883, 0.0655980184674263, -0.09914439171552658, 0.07683884352445602, 0.10106438398361206, -0.08035890012979507, -0.0487261563539505, -0.12460868805646896, -0.08125407993793488, 0.1248045265674591, 0.07162413001060486, 0.10420166701078415, -0.12349600344896317, -0.1197582557797432, 0.07818218320608139, 0.12494220584630966, -0.10380672663450241, -0.12211109697818756, -0.10982265323400497, 0.06455770879983902, -0.06543686985969543, 0.09281381964683533, -0.11219525337219238, 0.1149078756570816, -0.03854747489094734, -0.123956598341465, 0.09828080981969833, -0.11812913417816162, -0.09433382004499435, -0.06208071857690811, 0.12254909425973892, 0.03665154054760933, -0.07908441126346588, 0.06512778997421265, -0.1028268039226532, 0.08181547373533249, 0.12356900423765182, -0.04387500509619713, -0.11444614082574844, 0.006496562622487545, 0.0011895484058186412, 0.02113763988018036, 0.11263269186019897, -0.10230444371700287, 0.1244092807173729, 0.09201265871524811, 0.12463681399822235, 0.11112616956233978, -0.038477011024951935, 0.0949978306889534, 0.10721170902252197, -0.09572965651750565, -0.1057676374912262, 0.11732986569404602, 0.06160129979252815, 0.04606781154870987, 0.06479384750127792], [0.012861024588346481, -0.1030811294913292, 0.04816475510597229, -0.11757360398769379, -0.010955787263810635, 0.03780308738350868, -0.12391094863414764, -0.0693126916885376, 0.11539317667484283, -0.08002424985170364, -0.11652982234954834, -0.11918211728334427, -0.0163479782640934, -0.11929083615541458, 0.1120661199092865, -0.08085595071315765, 0.12206166237592697, 0.05865330994129181, -0.03078201785683632, 0.08670850843191147, -0.037320222705602646, -0.02721484564244747, -0.06356105953454971, 0.1188499853014946, -0.029123779386281967, -0.034856945276260376, -0.06033654510974884, -0.11878601461648941, -0.12166131287813187, -0.12451554834842682, -0.09706078469753265, -0.0900922641158104, -0.01178757380694151, -0.00232572085224092, -0.08402998745441437, 0.12273133546113968, -0.0675143301486969, 0.12332262843847275, 0.08017905056476593, 0.09527801722288132, 0.1231049969792366, -0.029731914401054382, 0.12489436566829681, 0.12009488791227341, -0.12225702404975891, -0.06826099753379822, 0.03285586088895798, 0.1240534707903862, -0.01890292391180992, -0.014301230199635029, 0.011591094546020031, -0.11196932196617126, 0.09825541079044342, -0.12493577599525452, 0.09463555365800858, -0.12319181114435196, -0.12410727143287659, -0.11758479475975037, 0.11861580610275269, 0.06539452075958252, -0.05893288180232048, -0.11003033816814423, 0.08966037631034851, -0.12497052550315857, 0.12486249953508377, -0.056174200028181076, 0.12424133718013763, 0.11575386673212051, 0.11943624913692474, 0.10846241563558578, -0.07748337090015411, -0.11737233400344849, 0.09267286211252213, -0.056137487292289734, 0.0928330197930336, -0.12454160302877426, 0.0061758714728057384, -0.11668259650468826, -0.12061169743537903, -0.12103571742773056, 0.010582558810710907, -0.11369026452302933, -0.0756382867693901, -0.014035605825483799, 0.06507149338722229, 0.11249660700559616, 0.12362737208604813, 0.04765522852540016, 0.10319748520851135, 0.12409250438213348, 0.08881014585494995, 0.008173001930117607, 0.11538371443748474, -0.10613451898097992, 0.10604961961507797, 0.030833883211016655, 0.053641192615032196, 0.015535661950707436, 0.12327113747596741, -0.08633433282375336, -0.12485288083553314, -0.03526400029659271, -0.023818008601665497, -0.04594918712973595, 0.12386439740657806, -0.10739956051111221, -0.1070568636059761, -0.0966416448354721, 0.018854273483157158, 0.10515549033880234, -0.08938475698232651, 0.1241297572851181, -0.02413315139710903, 0.036234233528375626, -0.048589710146188736, -0.12070631235837936, -0.004666631575673819, 0.041122712194919586, 0.09724464267492294, 0.008821828290820122, 0.0856231302022934, -0.0655561164021492, 0.12498562783002853, 0.12435117363929749, 0.11500339955091476, 0.11414608359336853, 0.10050686448812485, 0.11050719022750854], [0.046398382633924484, 0.05366073548793793, -0.10923922806978226, -0.0823257565498352, 0.11384540796279907, -0.07385647296905518, 0.08970917761325836, 0.12440108507871628, -0.08740047365427017, 0.0907328724861145, -0.09786969423294067, -0.08016091585159302, -0.14675137400627136, 0.1237606406211853, -0.04735289886593819, -0.032614320516586304, 0.11071396619081497, 0.14788255095481873, 0.0767161101102829, -0.14306345582008362, 0.0752795860171318, 0.049606069922447205, 0.12478191405534744, 0.07066262513399124, -0.030786186456680298, 0.07924379408359528, -0.05731119588017464, 0.11970265954732895, 0.07410569489002228, -0.056001465767621994, -0.028013616800308228, -0.044856004416942596, 0.12290734052658081, -0.010262333787977695, 0.0421164371073246, 0.03865745663642883, 0.09630407392978668, 0.12445088475942612, -0.00017703739285934716, -0.10673251003026962, -0.12407709658145905, 0.11339771002531052, 0.039587799459695816, -0.12124373018741608, 0.02945173904299736, -0.10429026186466217, -0.0744730681180954, -0.10623675584793091, 0.0037289378233253956, -0.12062247842550278, -0.05283316969871521, -0.07896964251995087, 0.07248527556657791, 0.107511006295681, -0.02897552400827408, -0.022373979911208153, -0.08219467848539352, -0.013556654565036297, 0.06915474683046341, -0.11624450236558914, 0.12414371967315674, -0.03149953857064247, 0.04270482063293457, -0.08895193785429001, 0.12246482074260712, 0.09642732888460159, -0.07280025631189346, -0.12492942810058594, 0.004707935731858015, 0.04653029888868332, -0.002564352937042713, -0.023065868765115738, -0.12299057096242905, -0.08804774284362793, -0.0641941949725151, 0.07140818983316422, 0.11260055005550385, -0.1106722354888916, -0.08619427680969238, 0.025802988559007645, -0.02074405364692211, 0.01305326633155346, 0.12448985129594803, 0.018642624840140343, -0.026676392182707787, -0.09267862886190414, 0.013650703243911266, -0.09172508120536804, -0.12499772012233734, 0.013294891454279423, 0.04891574755311012, -0.08417315781116486, 0.025549056008458138, 0.11667368561029434, -0.030550634488463402, 0.06662865728139877, -0.03441021591424942, 0.07219339907169342, -0.034441910684108734, 0.06668443977832794, -0.11187761276960373, 0.07264285534620285, -0.12153347581624985, 0.03492416441440582, 0.09816110879182816, -0.07258918136358261, 0.06717799603939056, 0.04743051156401634, -0.06392564624547958, 0.04960435628890991, -0.1062757596373558, 0.034172423183918, -0.11801162362098694, -0.12303072959184647, 0.041281960904598236, 0.06836424022912979, -0.10299727320671082, 0.07021766155958176, 0.10737840831279755, -0.08993809670209885, -0.06335171312093735, -0.12473587691783905, -0.06397183239459991, 0.12352520227432251, 0.09249034523963928, 0.11800335347652435, -0.12428727000951767, -0.12021739780902863], [0.07559909671545029, 0.12457139790058136, -0.10814390331506729, -0.12404535710811615, -0.10297168046236038, 0.07799244672060013, -0.049456946551799774, 0.07727321237325668, -0.12120959162712097, 0.12294021248817444, -0.0666632205247879, -0.11554615944623947, 0.09726010262966156, -0.1191597655415535, -0.0899067297577858, -0.05484292656183243, 0.1197771355509758, 0.04895729571580887, -0.09105679392814636, 0.07978043705224991, -0.08928682655096054, 0.09969570487737656, 0.11634724587202072, -0.01367564033716917, -0.09751053899526596, 0.008131995797157288, 0.004465120378881693, 0.014652921818196774, 0.1159408837556839, -0.09529409557580948, 0.12245576828718185, 0.10228069126605988, 0.12197587639093399, 0.09981246292591095, -0.06239109858870506, 0.07469796389341354, 0.08806554973125458, -0.07163117825984955, -0.10663165152072906, 0.11615962535142899, 0.06721606850624084, 0.03835969790816307, 0.054728250950574875, -0.00022219216043595225, -0.11143727600574493, 0.03109336458146572, -0.10867471992969513, 0.01520442683249712, 0.010541612282395363, -0.12414664775133133, -0.03998981788754463, 0.11475345492362976, -0.08251352608203888, -0.11873981356620789, -0.12139445543289185, -0.004925904329866171, -0.12254419177770615, 0.11834148317575455, -0.09371259063482285, 0.11572589725255966, 0.03439046069979668, -0.05679101124405861, 0.10622353106737137, -0.005131684243679047, -0.025613602250814438, -0.06071824952960014, 0.11665747314691544, -0.02110114134848118, -0.045707788318395615, -0.04854810610413551, -0.12285376340150833, -0.11627636104822159, -0.12084848433732986, -0.07853827625513077, -0.1070120632648468, -0.04209281504154205, 0.030139243230223656, -0.0852355882525444, 0.12331051379442215, -0.06190914660692215, 0.12439438700675964, 0.08862736821174622, 0.10322295874357224, 0.12488290667533875, -0.011980458162724972, 0.12395711988210678, 0.11024647951126099, -0.12498956173658371, -0.040348418056964874, 0.06298577040433884, 0.12384159862995148, -0.02213488332927227, -0.020788580179214478, 0.0034160842187702656, -0.11658928543329239, 0.0896289125084877, -0.12438791245222092, 0.10538634657859802, -0.125, -0.12449284642934799, -0.10530674457550049, 0.10523795336484909, 0.09076573699712753, -0.05748311057686806, -0.10843794047832489, 0.09410113096237183, -0.12488004565238953, 0.12487439811229706, -0.06755232810974121, 0.12137877196073532, 0.10777468234300613, 0.1239597350358963, 0.11902090162038803, -0.05389419198036194, -0.12434861809015274, 0.11124452203512192, -0.057596370577812195, 0.09499503672122955, -0.12493094056844711, 0.014338018372654915, -0.11208442598581314, -0.11651347577571869, -0.11591631174087524, -0.0074211652390658855, -0.12085366994142532, -0.09469733387231827, 0.013757092878222466, 0.08936721086502075], [0.19453193247318268, 0.26410019397735596, 0.16648507118225098, 0.1917889416217804, 0.12886600196361542, 0.2044934779405594, 0.2258739471435547, 0.02948438934981823, -0.3005722463130951, 0.3259681165218353, 0.06745345145463943, 0.07512015104293823, 0.003191713709384203, 0.2090996354818344, -0.2104284167289734, -0.4584859013557434, -0.06985371559858322, -0.1526595503091812, 0.06254018843173981, 0.3693981468677521, -0.0058095757849514484, 0.005487293004989624, -0.33010679483413696, -0.2560957968235016, 0.11748941242694855, -0.06509291380643845, 0.11607435345649719, -0.025738462805747986, 0.039357252418994904, -0.05455785244703293, -0.11832030862569809, -0.01609070785343647, 0.028543060645461082, 0.08614668250083923, 0.026643944904208183, 0.0998246893286705, -0.041965238749980927, 0.12231510132551193, 0.11738096177577972, 0.09838259220123291, 0.1148039847612381, 0.09852449595928192, 0.11341670155525208, 0.04862383008003235, 0.06457182765007019, -0.11358396708965302, -0.07243174314498901, 0.12089458107948303, -0.08930103480815887, 0.08456504344940186, 0.09028631448745728, -0.11860788613557816, 0.07277695089578629, -0.10656502097845078, -0.10555650293827057, -0.12107264250516891, 0.11140749603509903, -0.10215513408184052, -0.07374735176563263, 0.05725279822945595, 0.08324697613716125, 0.0772891715168953, -0.11377066373825073, 0.031053559854626656, 0.0682399794459343, 0.04131713882088661, 0.008004680275917053, -0.027600398287177086, 0.0740693211555481, -0.06446254998445511, 0.12249770015478134, 0.08423389494419098, -0.04091665893793106, -0.045224629342556, -0.06398928165435791, 0.12495625019073486, -0.03753586858510971, 0.011812549084424973, 0.006533783860504627, 0.09734019637107849, 0.12410139292478561, 0.006373206619173288, -0.10224290192127228, -0.12216629832983017, 0.10727087408304214, 0.023753508925437927, -0.12435532361268997, 0.04962299391627312, -0.11635012924671173, -0.0948154479265213, -0.08672657608985901, -0.02877514623105526, -0.12018238008022308, -0.055784132331609726, -0.08393850177526474, 0.07899834960699081, 0.10121685266494751, -0.04154209792613983, -0.00611024908721447, -0.06781204044818878, -0.03442973643541336, 0.08931541442871094, -0.12352640926837921, 0.12391425669193268, -0.061769407242536545, 0.041161514818668365, -0.08661966770887375, 0.12360905855894089, 0.09101177006959915, -0.06318502128124237, -0.12380384653806686, -0.011656510643661022, 0.06271544098854065, 0.018662704154849052, -0.04813411086797714, -0.11501790583133698, -0.1071988046169281, -0.08979494869709015, 0.072746641933918, 0.11398445069789886, -0.10747527331113815, -0.09193742275238037, 0.01448943093419075, -0.007729517295956612, 0.02918766811490059, 0.12481921166181564, -0.002584655536338687, -0.0006711145397275686], [-0.04470830783247948, 0.10116049647331238, -0.06025267019867897, -0.08883510529994965, 0.013312089256942272, 0.09704076498746872, 0.014498629607260227, 0.015920983627438545, 0.05503688007593155, 0.03717324882745743, 0.06829790771007538, 0.011903407983481884, 0.07485052198171616, 0.053855862468481064, 0.004290045704692602, -0.24302594363689423, 0.07469059526920319, -0.15620607137680054, 0.10606343299150467, 0.22054865956306458, -0.01828635483980179, 0.1213921308517456, -0.021780729293823242, -0.17299506068229675, 0.02943200245499611, -0.09024929255247116, 0.05989602208137512, -0.10421552509069443, -0.12455525994300842, 0.042824700474739075, 0.07108349353075027, -0.1065671443939209, 0.06329506635665894, 0.11278930306434631, -0.09852949529886246, -0.07689065486192703, -0.12227506190538406, -0.04483705013990402, 0.11683403700590134, 0.10878421366214752, 0.12452560663223267, -0.11658790707588196, -0.12065588682889938, 0.07296407967805862, 0.12385831773281097, -0.11201686412096024, -0.1249362975358963, -0.09498976171016693, 0.09008944779634476, -0.03245089203119278, 0.05949488282203674, -0.1249135434627533, 0.1248948872089386, -0.09066662192344666, -0.09924224019050598, 0.09622268378734589, -0.12010852992534637, -0.08523261547088623, -0.047369714826345444, 0.11599776893854141, 0.06072534993290901, -0.10146734863519669, 0.0927778035402298, -0.07316122949123383, 0.1132081001996994, 0.10337377339601517, 0.017367351800203323, -0.07391353696584702, 0.009766031987965107, 0.007737624924629927, 0.008127942681312561, 0.11875137686729431, -0.0874822586774826, 0.11915731430053711, 0.11079438030719757, 0.11678418517112732, 0.0856083333492279, -0.08357173204421997, 0.05070533975958824, 0.06348677724599838, -0.042639248073101044, -0.1074773520231247, 0.1149095743894577, 0.07264615595340729, 0.030486920848488808, 0.044202353805303574, -0.013302968814969063, -0.11788202822208405, 0.013376847840845585, -0.09662876278162003, 0.04069850966334343, -0.01724099926650524, -0.1167239397764206, -0.007935059256851673, 0.11409402638673782, -0.08494611084461212, -0.12062354385852814, -0.12308567762374878, 0.0065376004204154015, -0.124451644718647, 0.12258703261613846, -0.10462488234043121, 0.10603886842727661, 0.00862091314047575, -0.07999249547719955, 0.11918579041957855, 0.02740742266178131, -0.02400795742869377, -0.057833727449178696, 0.11414442956447601, -0.012987921945750713, -0.056174200028181076, -0.036226458847522736, -0.12481429427862167, -0.10847891867160797, -0.11368182301521301, -0.056574877351522446, -0.11864162981510162, -0.06980141997337341, 0.06054525449872017, -0.08642654865980148, 0.123804971575737, -0.05613385885953903, 0.12493216246366501, 0.09633026272058487, 0.11003419011831284, 0.12451879680156708, 0.006019567139446735], [0.1418229043483734, 0.12225782126188278, -0.10305558890104294, 0.01323755457997322, 0.0725967139005661, 0.11316128820180893, -0.0030276819597929716, -0.02679525688290596, -0.03716614469885826, -0.10351472347974777, 0.05925080552697182, -0.15730509161949158, 0.04670857638120651, -0.16010552644729614, -0.1556820124387741, -0.1636347621679306, 0.049769483506679535, 0.10993632674217224, -0.05602346733212471, -0.10677104443311691, 0.0982833206653595, -0.12425350397825241, 0.12383601069450378, -0.07818852365016937, 0.11643429100513458, 0.09755939990282059, 0.12489353120326996, 0.12436488270759583, -0.027640709653496742, -0.12365404516458511, 0.12221655994653702, -0.05904536321759224, 0.09709179401397705, -0.1249770075082779, 0.022438617423176765, -0.10654353350400925, -0.1111355796456337, -0.10880868881940842, -0.025270914658904076, -0.12451733648777008, -0.10960754007101059, 0.04086969792842865, 0.10815001279115677, 0.12466569989919662, 0.12406907975673676, 0.041534438729286194, 0.09524878114461899, 0.12106342613697052, 0.0712696835398674, 0.033958639949560165, 0.09898383170366287, -0.12053018808364868, 0.12206603586673737, 0.07748955488204956, 0.0970657542347908, -0.04560036584734917, 0.11708676069974899, -0.08393549174070358, -0.1249990463256836, -0.022519700229167938, -0.03965011239051819, -0.023967627435922623, 0.12465047836303711, -0.08715829998254776, -0.08428878337144852, -0.11758049577474594, -0.033098068088293076, 0.12401515245437622, -0.03678559884428978, 0.10008937120437622, -0.027339352294802666, 0.042453233152627945, -0.060376085340976715, -0.11542639881372452, -0.02737944945693016, 0.01564992032945156, 0.073571115732193, 0.043913256376981735, 0.11113546788692474, -0.016535794362425804, 0.1135978251695633, 0.10316970199346542, 0.07504080981016159, 0.11544216424226761, 0.09647444635629654, 0.11601458489894867, 0.056060198694467545, 0.07410569489002228, -0.11842210590839386, -0.05849691107869148, 0.12420511245727539, -0.10283835232257843, 0.06355056166648865, 0.06895260512828827, -0.12467463314533234, 0.043955978006124496, -0.10569959133863449, -0.10727503895759583, -0.11927733570337296, 0.10745636373758316, -0.10832509398460388, -0.06277970224618912, 0.042240358889102936, 0.06898687779903412, 0.09282742440700531, -0.10049961507320404, 0.003531436901539564, 0.09194567799568176, 0.009335334412753582, 0.006369150243699551, -0.024395648390054703, 0.06869133561849594, -0.07133718580007553, 0.12426244467496872, 0.09343695640563965, -0.02513004094362259, -0.06149732694029808, -0.0812695100903511, 0.12153062969446182, -0.06295378506183624, -0.019220035523176193, -0.02603624388575554, 0.0983595922589302, 0.12366663664579391, 0.012905938550829887, -0.09731440991163254, -0.11922799050807953, 0.09996586292982101], [0.007511792238801718, -0.12488680332899094, 0.06835723668336868, -0.12331251055002213, -0.11047054082155228, -0.061866383999586105, -0.059313468635082245, -0.11972163617610931, -0.05869676545262337, -0.08867672085762024, 0.08517230302095413, 0.0940714031457901, -0.05365241318941116, 0.010258286260068417, -0.052022453397512436, -0.0543057844042778, 0.10556302964687347, -0.12470167875289917, 0.11604072153568268, -0.08781953155994415, 0.03961113840341568, -0.08422789722681046, 